{"learner":{"attributes":{"scikit_learn":"{\"_estimator_type\": \"classifier\"}"},"feature_names":["phys_len_0","gen_len_0","n_mismatches_0","n_corrections_0","phys_len_1","gen_len_1","n_mismatches_1","n_corrections_1","phys_len_2","gen_len_2","n_mismatches_2","n_corrections_2","phys_len_3","gen_len_3","n_mismatches_3","n_corrections_3","phys_len_4","gen_len_4","n_mismatches_4","n_corrections_4","phys_len_5","gen_len_5","n_mismatches_5","n_corrections_5","phys_len_6","gen_len_6","n_mismatches_6","n_corrections_6","phys_len_7","gen_len_7","n_mismatches_7","n_corrections_7","phys_len_8","gen_len_8","n_mismatches_8","n_corrections_8","phys_len_9","gen_len_9","n_mismatches_9","n_corrections_9"],"feature_types":["float","float","float","float","float","float","float","float","float","float","float","float","float","float","float","float","float","float","float","float","float","float","float","float","float","float","float","float","float","float","float","float","float","float","float","float","float","float","float","float"],"gradient_booster":{"model":{"gbtree_model_param":{"num_parallel_tree":"1","num_trees":"100"},"iteration_indptr":[0,1,2,3,4,5,6,7,8,9,10,11,12,13,14,15,16,17,18,19,20,21,22,23,24,25,26,27,28,29,30,31,32,33,34,35,36,37,38,39,40,41,42,43,44,45,46,47,48,49,50,51,52,53,54,55,56,57,58,59,60,61,62,63,64,65,66,67,68,69,70,71,72,73,74,75,76,77,78,79,80,81,82,83,84,85,86,87,88,89,90,91,92,93,94,95,96,97,98,99,100],"tree_info":[0,0,0,0,0,0,0,0,0,0,0,0,0,0,0,0,0,0,0,0,0,0,0,0,0,0,0,0,0,0,0,0,0,0,0,0,0,0,0,0,0,0,0,0,0,0,0,0,0,0,0,0,0,0,0,0,0,0,0,0,0,0,0,0,0,0,0,0,0,0,0,0,0,0,0,0,0,0,0,0,0,0,0,0,0,0,0,0,0,0,0,0,0,0,0,0,0,0,0,0],"trees":[{"base_weights":[-2.9368493E-1,2.8962082E-1,-6.795027E-1,5.658231E-1,-3.6113882E-1,-1.8963827E-1,-8.8541275E-1,1.0845326E0,2.8265026E-1,2.3510459E-1,-7.237716E-1,1.7192371E-1,-6.47906E-1,-5.795384E-1,-1.0730808E0,1.4694812E0,5.029603E-1,5.892384E-1,-1.8673612E-1,5.446506E-1,-7.008535E-1,1.6131938E-1,-8.9671713E-1,1.1777853E0,-8.033834E-2,8.0453026E-1,-7.153333E-1,-2.6192182E-1,-9.063097E-1,-5.724804E-1,-1.1262519E0,1.605275E0,-6.371839E-1,1.6542224E0,-5.165128E-2,1.1555805E0,2.7873427E-1,3.5476826E-2,-1.0754793E0,2.1410959E0,2.7734438E-1,1.16253525E-1,-8.5882264E-1,6.027749E-1,-8.378655E-1,-5.801228E-1,-1.0534606E0,-6.1821985E-1,1.5461903E0,2.2177875E-1,-7.1300405E-1,-1.5531115E-1,5.769656E-1,-1.019094E-1,-9.090906E-1,1.3884813E-1,-7.6400524E-1,2.6514068E-1,-9.7024834E-1,6.3950604E-1,-8.806188E-1,-9.016479E-1,-1.1882938E0,5.765642E-1,1.6513632E-1,8.5614495E-2,-2.8534013E-1,7.1182096E-1,-8.681762E-2,1.6610149E-1,-1.180492E-1,4.2577928E-1,-1.9431429E-1,5.53188E-1,2.817154E-2,8.8281095E-2,-2.2773959E-1,-5.6066584E-2,-3.3638185E-1,-5.6066584E-2,8.047367E-1,1.8691223E-2,8.8565016E-1,8.5614495E-2,-2.9568696E-1,-6.694482E-2,4.44755E-1,-2.8861818E-1,-5.6066584E-2,-2.0931531E-1,3.6897665E-1,-3.3493972E-1,-1.23478875E-1,8.5614495E-2,-2.818026E-1,5.927504E-1,-3.197027E-2,1.3780041E-1,-2.5624081E-1,1.5502635E-1,-2.63603E-1,-1.6594188E-1,3.6531898E-1,2.0431806E-1,-3.0503678E-1,3.0092764E-1,-4.4042394E-2,3.543232E-1,-2.6766583E-1,3.946527E-1,-1.0184709E-1,-1.8991745E-1,-3.4477517E-1,4.5525342E-1,-2.6432523E-1,1.8124881E-1,-3.4639728E-1,1.030638E-3,-3.0957815E-1,-2.110254E-1,-3.611043E-1],"categories":[],"categories_nodes":[],"categories_segments":[],"categories_sizes":[],"default_left":[0,0,0,0,0,0,0,0,0,0,0,0,0,0,0,0,0,0,0,0,0,0,0,0,0,0,0,0,0,0,0,0,0,0,0,0,0,0,0,0,0,0,0,0,0,0,0,0,0,0,0,0,0,0,0,0,0,0,0,0,0,0,0,0,0,0,0,0,0,0,0,0,0,0,0,0,0,0,0,0,0,0,0,0,0,0,0,0,0,0,0,0,0,0,0,0,0,0,0,0,0,0,0,0,0,0,0,0,0,0,0,0,0,0,0,0,0,0,0,0,0],"id":0,"left_children":[1,3,5,7,9,11,13,15,17,19,21,23,25,27,29,31,33,35,37,39,41,43,45,47,49,51,53,55,57,59,61,63,65,67,69,71,73,75,77,79,81,-1,83,85,87,89,91,93,95,97,99,-1,-1,101,103,105,107,109,111,113,115,117,119,-1,-1,-1,-1,-1,-1,-1,-1,-1,-1,-1,-1,-1,-1,-1,-1,-1,-1,-1,-1,-1,-1,-1,-1,-1,-1,-1,-1,-1,-1,-1,-1,-1,-1,-1,-1,-1,-1,-1,-1,-1,-1,-1,-1,-1,-1,-1,-1,-1,-1,-1,-1,-1,-1,-1,-1,-1,-1],"loss_changes":[2.8976492E2,9.240144E1,7.797876E1,5.2644356E1,3.334864E1,3.8312126E1,3.0673492E1,2.7682037E1,3.3862755E1,1.7413666E1,1.4787952E1,3.2995724E1,1.0553806E1,2.150422E1,8.317566E0,2.2726532E1,3.3340347E1,2.4669163E1,1.848919E1,1.849829E1,2.919929E0,7.776247E0,3.36763E0,1.8200268E1,2.0151642E1,8.377929E0,1.1542976E1,2.1764374E1,7.9605026E0,1.3396473E1,3.1557007E0,2.2839706E1,1.8094482E0,2.4376163E1,7.6919312E0,2.4697746E1,2.6763012E1,1.5792012E1,5.52166E-1,8.400602E0,2.2519913E1,0E0,2.2328835E0,9.060694E0,2.6241922E-1,6.983199E0,1.6596336E0,1.7625617E0,1.577018E1,1.86818E1,7.3901024E0,0E0,0E0,1.5337223E1,1.3412037E1,1.5133356E1,1.3007439E1,4.3258677E0,5.1716843E0,1.1410223E1,1.2016552E1,8.234131E0,9.031677E-1,0E0,0E0,0E0,0E0,0E0,0E0,0E0,0E0,0E0,0E0,0E0,0E0,0E0,0E0,0E0,0E0,0E0,0E0,0E0,0E0,0E0,0E0,0E0,0E0,0E0,0E0,0E0,0E0,0E0,0E0,0E0,0E0,0E0,0E0,0E0,0E0,0E0,0E0,0E0,0E0,0E0,0E0,0E0,0E0,0E0,0E0,0E0,0E0,0E0,0E0,0E0,0E0,0E0,0E0,0E0,0E0,0E0,0E0],"parents":[2147483647,0,0,1,1,2,2,3,3,4,4,5,5,6,6,7,7,8,8,9,9,10,10,11,11,12,12,13,13,14,14,15,15,16,16,17,17,18,18,19,19,20,20,21,21,22,22,23,23,24,24,25,25,26,26,27,27,28,28,29,29,30,30,31,31,32,32,33,33,34,34,35,35,36,36,37,37,38,38,39,39,40,40,42,42,43,43,44,44,45,45,46,46,47,47,48,48,49,49,50,50,53,53,54,54,55,55,56,56,57,57,58,58,59,59,60,60,61,61,62,62],"right_children":[2,4,6,8,10,12,14,16,18,20,22,24,26,28,30,32,34,36,38,40,42,44,46,48,50,52,54,56,58,60,62,64,66,68,70,72,74,76,78,80,82,-1,84,86,88,90,92,94,96,98,100,-1,-1,102,104,106,108,110,112,114,116,118,120,-1,-1,-1,-1,-1,-1,-1,-1,-1,-1,-1,-1,-1,-1,-1,-1,-1,-1,-1,-1,-1,-1,-1,-1,-1,-1,-1,-1,-1,-1,-1,-1,-1,-1,-1,-1,-1,-1,-1,-1,-1,-1,-1,-1,-1,-1,-1,-1,-1,-1,-1,-1,-1,-1,-1,-1,-1,-1],"split_conditions":[-3.123843E-1,1.799408E-2,-5.5524975E-1,-5.774838E-1,-5.717467E-1,-8.622971E-2,-2.3316684E-1,-1.3254328E-1,-2.4134576E-1,9.0478726E-2,-5.558985E-1,-7.5194037E-1,-4.534976E-1,-6.570638E-2,-6.4753735E-1,7.4467593E-1,-8.507435E-1,-6.6681045E-1,-4.286433E-2,-5.848746E-1,5.1268373E-2,-4.8263463E-1,-4.0939662E-1,-5.0790393E-1,4.5270693E-1,-3.5355097E-1,-6.6755307E-1,-1.0943597E-1,-3.6605453E-1,-7.1440196E-1,-2.0920132E-1,-1.2986415E-2,-4.7013006E-1,-3.6359257E-1,-5.517286E-1,-3.4567097E-1,-8.444841E-1,1.8157163E-1,-8.3573145E-1,-9.2985404E-1,6.899985E-2,1.16253525E-1,-6.5431947E-1,-6.180551E-1,1.0624735E0,-4.3074197E-1,-2.0435984E-1,-1.6916668E-1,-2.459949E-1,4.4374594E-1,-4.0355986E-1,-1.5531115E-1,5.769656E-1,-7.8061515E-1,-4.2382014E-1,-5.5902547E-1,-4.6960726E-1,-1.07428454E-1,-2.1807563E-1,2.6380375E-1,-3.5409826E-1,-5.934995E-1,-1.0036165E0,5.765642E-1,1.6513632E-1,8.5614495E-2,-2.8534013E-1,7.1182096E-1,-8.681762E-2,1.6610149E-1,-1.180492E-1,4.2577928E-1,-1.9431429E-1,5.53188E-1,2.817154E-2,8.8281095E-2,-2.2773959E-1,-5.6066584E-2,-3.3638185E-1,-5.6066584E-2,8.047367E-1,1.8691223E-2,8.8565016E-1,8.5614495E-2,-2.9568696E-1,-6.694482E-2,4.44755E-1,-2.8861818E-1,-5.6066584E-2,-2.0931531E-1,3.6897665E-1,-3.3493972E-1,-1.23478875E-1,8.5614495E-2,-2.818026E-1,5.927504E-1,-3.197027E-2,1.3780041E-1,-2.5624081E-1,1.5502635E-1,-2.63603E-1,-1.6594188E-1,3.6531898E-1,2.0431806E-1,-3.0503678E-1,3.0092764E-1,-4.4042394E-2,3.543232E-1,-2.6766583E-1,3.946527E-1,-1.0184709E-1,-1.8991745E-1,-3.4477517E-1,4.5525342E-1,-2.6432523E-1,1.8124881E-1,-3.4639728E-1,1.030638E-3,-3.0957815E-1,-2.110254E-1,-3.611043E-1],"split_indices":[8,17,17,29,9,5,13,5,13,25,20,21,0,21,9,33,33,17,5,4,17,12,21,1,29,13,29,1,4,29,17,21,37,28,37,8,33,33,9,33,25,0,0,0,9,21,24,8,5,13,0,0,0,29,16,29,32,25,25,4,20,5,33,0,0,0,0,0,0,0,0,0,0,0,0,0,0,0,0,0,0,0,0,0,0,0,0,0,0,0,0,0,0,0,0,0,0,0,0,0,0,0,0,0,0,0,0,0,0,0,0,0,0,0,0,0,0,0,0,0,0],"split_type":[0,0,0,0,0,0,0,0,0,0,0,0,0,0,0,0,0,0,0,0,0,0,0,0,0,0,0,0,0,0,0,0,0,0,0,0,0,0,0,0,0,0,0,0,0,0,0,0,0,0,0,0,0,0,0,0,0,0,0,0,0,0,0,0,0,0,0,0,0,0,0,0,0,0,0,0,0,0,0,0,0,0,0,0,0,0,0,0,0,0,0,0,0,0,0,0,0,0,0,0,0,0,0,0,0,0,0,0,0,0,0,0,0,0,0,0,0,0,0,0,0],"sum_hessian":[1.285685E3,5.119434E2,7.737417E2,3.5949377E2,1.5244963E2,2.2955241E2,5.441893E2,1.2595053E2,2.3354324E2,5.778719E1,9.466244E1,1.2866429E2,1.0088813E2,2.0848085E2,3.3570844E2,7.486793E1,5.1082596E1,1.4111568E2,9.2427574E1,4.3739475E1,1.4047714E1,1.5484412E1,7.9178024E1,2.5062399E1,1.0360189E2,3.9908278E0,9.68973E1,1.0663492E2,1.01845924E2,3.336332E1,3.0234512E2,7.055784E1,4.310094E0,1.5963311E1,3.5119286E1,4.9007366E1,9.210831E1,7.47083E1,1.7719276E1,5.267893E0,3.847158E1,1.5963311E0,1.2451383E1,1.1014685E1,4.469727E0,2.7776161E1,5.1401863E1,4.150461E0,2.0911938E1,7.055784E1,3.3044056E1,2.0752306E0,1.9155974E0,2.3625702E1,7.32716E1,5.9702785E1,4.6932137E1,5.1082597E0,9.673767E1,6.5449576E0,2.6818363E1,6.880187E1,2.3354324E2,5.3636726E1,1.692111E1,1.1174318E0,3.1926622E0,1.1493585E1,4.469727E0,1.2451383E1,2.2667902E1,4.2941307E1,6.066058E0,8.779821E0,8.332848E1,5.6829388E1,1.7878908E1,1.1174318E0,1.6601845E1,1.1174318E0,4.150461E0,3.6555984E1,1.9155974E0,1.1174318E0,1.1333951E1,6.066058E0,4.9486265E0,3.3522954E0,1.1174318E0,2.665873E1,1.1174318E0,4.613397E1,5.267893E0,1.1174318E0,3.033029E0,1.6442211E1,4.469727E0,5.8266087E1,1.229175E1,3.6715617E0,2.9372494E1,1.8038542E1,5.587159E0,4.310094E0,6.89615E1,1.4207347E1,4.5495438E1,2.3944967E0,4.453764E1,1.4366981E0,3.6715617E0,3.5119286E1,6.161838E1,4.150461E0,2.3944967E0,3.9908278E0,2.2827536E1,8.779821E0,6.0022053E1,8.620188E0,2.2492307E2],"tree_param":{"num_deleted":"0","num_feature":"40","num_nodes":"121","size_leaf_vector":"1"}},{"base_weights":[-2.44995E-1,1.3507888E-1,-6.043399E-1,2.9490077E-1,-3.1560537E-1,-3.106086E-1,-8.975328E-1,4.015361E-1,-4.0954012E-1,-3.1645477E-2,-8.5169494E-1,2.0767044E-1,-5.404762E-1,-5.2993774E-1,-1.051016E0,6.1266595E-1,6.298821E-2,1.7690653E-1,-7.3094803E-1,5.5714214E-1,-3.2186037E-1,-7.2162256E-2,-9.6263987E-1,7.404916E-1,-2.990427E-1,-1.8536408E-1,-8.680359E-1,-1.7621711E-1,-9.92628E-1,2.2456297E-1,-1.0636555E0,9.308458E-1,3.121661E-1,1.0749652E0,-4.0508945E-2,5.846392E-1,-8.0061924E-1,-3.0165532E-1,-1.0219798E0,2.5863614E0,3.0539674E-1,5.188276E-1,-4.3711883E-1,6.330382E-1,-7.361535E-1,1.0674303E-1,-9.9905246E-1,1.0730728E0,-7.702434E-1,6.379768E-1,-6.736539E-1,4.5596907E-1,-5.4289824E-1,-5.2394295E-1,-1.0942556E0,1.6882342E-1,-9.423922E-1,-3.8480031E-1,-3.3525562E-1,1.0531588E-1,-1.0719756E0,3.1807774E-1,-5.597139E-2,3.4321404E-1,4.2013604E-2,4.4227847E-1,-1.2553927E-1,7.715742E-2,-1.09995894E-1,-7.881089E-2,4.5699748E-1,8.054551E-2,-3.1642035E-1,8.911511E-2,-2.6610184E-1,-3.5909276E-2,-3.179717E-1,9.1529244E-1,2.1668124E-1,2.2480093E-1,-1.741943E-1,3.2715744E-1,-1.5617913E-1,3.681737E-1,-1.0581291E-1,-4.6323527E-2,-2.6048422E-1,-5.1185366E-2,-3.105963E-1,2.3383497E-1,7.404197E-1,-2.8228396E-1,3.7639946E-2,4.35743E-1,-7.2154015E-2,3.1290755E-1,-2.2963636E-1,2.519753E-1,-9.434899E-2,-1.4587236E-2,-2.9000723E-1,1.6311485E-1,-2.2267133E-1,-8.771435E-3,-3.4034726E-1,3.0339876E-1,-2.681813E-2,9.426593E-2,-3.3145148E-1,-3.115375E-1,3.3728972E-1,-1.8451817E-2,-3.2385337E-1],"categories":[],"categories_nodes":[],"categories_segments":[],"categories_sizes":[],"default_left":[0,0,0,0,0,0,0,0,0,0,0,0,0,0,0,0,0,0,0,0,0,0,0,0,0,0,0,0,0,0,0,0,0,0,0,0,0,0,0,0,0,0,0,0,0,0,0,0,0,0,0,0,0,0,0,0,0,0,0,0,0,0,0,0,0,0,0,0,0,0,0,0,0,0,0,0,0,0,0,0,0,0,0,0,0,0,0,0,0,0,0,0,0,0,0,0,0,0,0,0,0,0,0,0,0,0,0,0,0,0,0,0,0],"id":1,"left_children":[1,3,5,7,9,11,13,15,17,19,21,23,25,27,29,31,33,35,37,39,41,43,45,47,49,51,53,55,57,-1,59,61,63,65,67,69,71,73,75,77,79,-1,81,83,85,-1,87,89,91,93,95,97,99,101,103,105,107,109,-1,-1,111,-1,-1,-1,-1,-1,-1,-1,-1,-1,-1,-1,-1,-1,-1,-1,-1,-1,-1,-1,-1,-1,-1,-1,-1,-1,-1,-1,-1,-1,-1,-1,-1,-1,-1,-1,-1,-1,-1,-1,-1,-1,-1,-1,-1,-1,-1,-1,-1,-1,-1,-1,-1],"loss_changes":[1.6647928E2,4.2799816E1,5.3669266E1,3.308206E1,2.3674652E1,3.757518E1,1.710083E1,2.7201672E1,1.108206E1,1.7749176E1,4.5899467E0,2.6501743E1,2.5210617E1,1.5242607E1,5.7949677E0,2.2140907E1,1.5491691E1,8.988377E0,4.405752E0,1.6739616E1,1.7189678E1,4.1152387E0,2.6157913E0,2.4810501E1,1.8192747E1,2.4536839E1,8.237358E0,1.4594309E1,2.6519089E0,0E0,2.9499512E0,1.660321E1,1.7331179E1,8.799256E0,1.3179902E1,1.2858404E1,2.1072516E0,6.1031537E0,6.2828827E-1,9.6045876E-1,1.2889051E1,0E0,9.06201E0,2.961533E0,2.0999455E-1,0E0,1.2078514E0,1.4271965E1,1.5239329E0,1.1058329E1,6.572193E0,1.1641237E1,1.4295195E1,1.1314719E1,2.853836E0,8.465447E0,3.8392181E0,9.498139E0,0E0,0E0,1.5906372E0,0E0,0E0,0E0,0E0,0E0,0E0,0E0,0E0,0E0,0E0,0E0,0E0,0E0,0E0,0E0,0E0,0E0,0E0,0E0,0E0,0E0,0E0,0E0,0E0,0E0,0E0,0E0,0E0,0E0,0E0,0E0,0E0,0E0,0E0,0E0,0E0,0E0,0E0,0E0,0E0,0E0,0E0,0E0,0E0,0E0,0E0,0E0,0E0,0E0,0E0,0E0,0E0],"parents":[2147483647,0,0,1,1,2,2,3,3,4,4,5,5,6,6,7,7,8,8,9,9,10,10,11,11,12,12,13,13,14,14,15,15,16,16,17,17,18,18,19,19,20,20,21,21,22,22,23,23,24,24,25,25,26,26,27,27,28,28,30,30,31,31,32,32,33,33,34,34,35,35,36,36,37,37,38,38,39,39,40,40,42,42,43,43,44,44,46,46,47,47,48,48,49,49,50,50,51,51,52,52,53,53,54,54,55,55,56,56,57,57,60,60],"right_children":[2,4,6,8,10,12,14,16,18,20,22,24,26,28,30,32,34,36,38,40,42,44,46,48,50,52,54,56,58,-1,60,62,64,66,68,70,72,74,76,78,80,-1,82,84,86,-1,88,90,92,94,96,98,100,102,104,106,108,110,-1,-1,112,-1,-1,-1,-1,-1,-1,-1,-1,-1,-1,-1,-1,-1,-1,-1,-1,-1,-1,-1,-1,-1,-1,-1,-1,-1,-1,-1,-1,-1,-1,-1,-1,-1,-1,-1,-1,-1,-1,-1,-1,-1,-1,-1,-1,-1,-1,-1,-1,-1,-1,-1,-1],"split_conditions":[-2.7736786E-1,1.799408E-2,-1.9790775E-1,3.9246735E-1,-2.4705572E-1,-3.8340685E-1,-2.9902908E-1,-1.02025665E-1,-6.398468E-1,-5.970433E-1,-6.519351E-1,-7.496368E-2,-2.9071444E-1,-9.875466E-3,-4.9435428E-1,-3.58777E-1,-6.012438E-1,-3.0409622E-1,6.582175E-1,-9.31828E-1,-1.1615767E0,-5.681613E-1,-9.2331135E-1,1.1218467E-1,-4.2943564E-1,-4.3074197E-1,-5.0814116E-1,2.593891E-1,-2.1100852E-1,2.2456297E-1,-4.1137156E-1,1.6652467E0,-8.028368E-1,-1.2730342E-1,-4.2607158E-1,-4.257071E-1,-5.818396E-1,1.0520917E-1,-7.458634E-1,-6.398468E-1,3.4399442E-2,5.188276E-1,-9.415962E-1,1.4005111E-1,-8.52314E-1,1.0674303E-1,-9.597717E-1,3.020979E-1,2.3292334E0,6.7471766E-1,-4.57158E-1,5.191428E-1,-2.1402423E-1,-3.4602103E-1,-3.3548588E-1,-7.5859064E-1,-9.606125E-1,-2.7601406E-1,-3.3525562E-1,1.0531588E-1,-9.7176117E-1,3.1807774E-1,-5.597139E-2,3.4321404E-1,4.2013604E-2,4.4227847E-1,-1.2553927E-1,7.715742E-2,-1.09995894E-1,-7.881089E-2,4.5699748E-1,8.054551E-2,-3.1642035E-1,8.911511E-2,-2.6610184E-1,-3.5909276E-2,-3.179717E-1,9.1529244E-1,2.1668124E-1,2.2480093E-1,-1.741943E-1,3.2715744E-1,-1.5617913E-1,3.681737E-1,-1.0581291E-1,-4.6323527E-2,-2.6048422E-1,-5.1185366E-2,-3.105963E-1,2.3383497E-1,7.404197E-1,-2.8228396E-1,3.7639946E-2,4.35743E-1,-7.2154015E-2,3.1290755E-1,-2.2963636E-1,2.519753E-1,-9.434899E-2,-1.4587236E-2,-2.9000723E-1,1.6311485E-1,-2.2267133E-1,-8.771435E-3,-3.4034726E-1,3.0339876E-1,-2.681813E-2,9.426593E-2,-3.3145148E-1,-3.115375E-1,3.3728972E-1,-1.8451817E-2,-3.2385337E-1],"split_indices":[8,17,13,29,9,29,9,9,9,25,28,5,5,29,4,5,12,16,29,13,33,20,13,4,9,21,21,17,12,0,12,37,13,1,25,20,37,25,25,9,21,0,9,17,1,0,1,32,23,5,16,28,33,16,4,25,33,24,0,0,17,0,0,0,0,0,0,0,0,0,0,0,0,0,0,0,0,0,0,0,0,0,0,0,0,0,0,0,0,0,0,0,0,0,0,0,0,0,0,0,0,0,0,0,0,0,0,0,0,0,0,0,0],"split_type":[0,0,0,0,0,0,0,0,0,0,0,0,0,0,0,0,0,0,0,0,0,0,0,0,0,0,0,0,0,0,0,0,0,0,0,0,0,0,0,0,0,0,0,0,0,0,0,0,0,0,0,0,0,0,0,0,0,0,0,0,0,0,0,0,0,0,0,0,0,0,0,0,0,0,0,0,0,0,0,0,0,0,0,0,0,0,0,0,0,0,0,0,0,0,0,0,0,0,0,0,0,0,0,0,0,0,0,0,0,0,0,0,0],"sum_hessian":[1.2173376E3,5.919086E2,6.25429E2,4.3721045E2,1.5469815E2,3.1345642E2,3.119726E2,3.8010217E2,5.7108288E1,1.0182288E2,5.2875267E1,9.633897E1,2.1711746E2,9.320281E1,2.1876979E2,2.3360718E2,1.46495E2,2.0377226E1,3.673106E1,3.3314568E1,6.8508316E1,6.793379E0,4.608189E1,4.6734814E1,4.9604156E1,1.0492869E2,1.12188774E2,5.3604065E1,3.959875E1,1.1197596E0,2.1765002E2,1.1244685E2,1.21160324E2,1.2721358E1,1.3377364E2,1.4663076E1,5.7141495E0,1.5663209E1,2.1067852E1,2.6533396E0,3.0661228E1,2.8995466E0,6.5608765E1,3.3170643E0,3.4763145E0,1.0027319E0,4.507916E1,3.8540096E1,8.194718E0,1.3966513E1,3.563764E1,3.7459587E1,6.74691E1,4.5816036E1,6.6372734E1,3.7497177E1,1.6106886E1,7.4451623E0,3.2153587E1,1.0317115E0,2.1661832E2,1.008214E2,1.1625447E1,1.9803038E1,1.01357285E2,1.0047742E1,2.6736166E0,7.0047005E1,6.372664E1,8.084982E0,6.5780945E0,1.0865039E0,4.627646E0,7.9867578E0,7.676451E0,1.0174754E0,2.0050377E1,1.6142808E0,1.0390588E0,2.0529509E1,1.0131721E1,2.7743773E0,6.283439E1,1.9166945E0,1.4003699E0,1.0448064E0,2.431508E0,2.1300182E0,4.294914E1,3.31263E1,5.4137917E0,6.8405523E0,1.3541659E0,6.908167E0,7.058346E0,1.2830288E0,3.4354614E1,2.4940678E1,1.2518909E1,3.1659267E1,3.5809837E1,7.5243616E0,3.829167E1,2.4790726E0,6.3893665E1,8.112218E0,2.938496E1,1.7368754E0,1.4370011E1,5.4125953E0,2.0325668E0,1.67128E0,2.1494704E2],"tree_param":{"num_deleted":"0","num_feature":"40","num_nodes":"113","size_leaf_vector":"1"}},{"base_weights":[-2.0107839E-1,5.4096542E-2,-5.7029104E-1,2.1746932E-1,-3.4385592E-1,-3.0635798E-1,-9.530857E-1,2.9665542E-1,-4.8115754E-1,-1.06973425E-1,-7.0456123E-1,-1.4329061E-1,-8.5636425E-1,-3.607013E-1,-1.0199206E0,4.6626267E-1,-5.6111984E-2,1.8516314E-1,-7.588381E-1,2.3977667E-1,-5.8501905E-1,4.7867626E-1,-8.095837E-1,1.5919584E-1,-4.762084E-1,-5.1645803E-1,-1.0582591E0,1.5796451E-1,-8.8161695E-1,-1.0308248E0,1.1940465E-1,7.130887E-1,9.3475886E-2,2.9089952E-1,-4.3614626E-1,1.4209372E0,-1.4619298E-1,-6.6713415E-2,-1.0407789E0,6.9510406E-1,-2.2670786E-1,2.853206E-1,-6.568759E-1,1.7859292E0,-2.7706778E-1,1.8210208E-1,-9.377431E-1,3.3730766E-1,-6.5503347E-1,8.29645E-1,-5.9464437E-1,2.8829944E-1,-6.645691E-1,-3.1606782E-2,-1.0815754E0,-5.0820607E-1,1.0271889E0,-3.14696E-1,-3.0640084E-1,1.0188448E-1,-1.0416974E0,2.5520024E-1,-3.296932E-2,2.4850893E-1,-3.7196167E-2,1.3584682E-1,-2.0227607E-1,2.1973444E-2,-2.434536E-1,5.720086E-1,7.17783E-2,8.5197985E-2,-2.269047E-1,-1.6104907E-1,4.3787307E-1,7.4470684E-2,-3.333608E-1,3.2211605E-1,-5.3560916E-2,3.981717E-1,-1.7040914E-1,4.7589466E-3,-2.3393643E-1,-4.8313793E-2,7.5546056E-1,4.2232183E-1,-2.278395E-1,1.3997316E-1,-2.9312092E-1,2.025996E-1,-7.597455E-2,-4.671135E-3,-2.99302E-1,7.287575E-1,-8.3704226E-2,-1.0121723E-1,-2.7363515E-1,1.5094355E-1,-2.6194966E-1,-4.5684658E-2,-3.310318E-1,-2.592663E-1,2.1900187E-1,4.710105E-1,-9.8271415E-2,1.0649207E-1,-2.1564975E-1,-1.6462276E-2,-3.157037E-1],"categories":[],"categories_nodes":[],"categories_segments":[],"categories_sizes":[],"default_left":[0,0,0,0,0,0,0,0,0,0,0,0,0,0,0,0,0,0,0,0,0,0,0,0,0,0,0,0,0,0,0,0,0,0,0,0,0,0,0,0,0,0,0,0,0,0,0,0,0,0,0,0,0,0,0,0,0,0,0,0,0,0,0,0,0,0,0,0,0,0,0,0,0,0,0,0,0,0,0,0,0,0,0,0,0,0,0,0,0,0,0,0,0,0,0,0,0,0,0,0,0,0,0,0,0,0,0,0,0],"id":2,"left_children":[1,3,5,7,9,11,13,15,17,19,21,23,25,27,29,31,33,35,37,39,41,43,45,47,49,51,53,55,57,59,-1,61,63,65,67,69,71,73,75,77,79,-1,81,83,-1,85,87,89,91,93,95,-1,97,-1,99,101,103,105,-1,-1,107,-1,-1,-1,-1,-1,-1,-1,-1,-1,-1,-1,-1,-1,-1,-1,-1,-1,-1,-1,-1,-1,-1,-1,-1,-1,-1,-1,-1,-1,-1,-1,-1,-1,-1,-1,-1,-1,-1,-1,-1,-1,-1,-1,-1,-1,-1,-1,-1],"loss_changes":[1.08327835E2,4.4325275E1,4.7178665E1,2.6870903E1,1.6883873E1,2.495224E1,7.2051697E0,2.6027546E1,9.311833E0,2.0194721E1,1.0142303E1,2.191283E1,3.827217E0,5.7968016E0,3.0594177E0,2.6946815E1,1.885228E1,6.5073867E0,6.796253E0,1.5202153E1,6.270914E0,1.4532034E1,9.381374E0,1.6806585E1,1.6497658E1,6.263135E0,7.532425E-1,7.0888214E0,5.181484E-1,2.8914032E0,0E0,2.0075615E1,1.8976475E1,1.1998343E1,1.3094381E1,1.4645514E0,3.6370943E0,8.85748E0,2.5390434E0,1.2129242E1,1.9710588E1,0E0,4.1019764E0,6.077014E0,0E0,1.1606757E1,4.009178E0,1.9034943E1,4.556511E0,1.6677624E1,7.48843E0,0E0,6.273609E0,0E0,6.038666E-1,3.7559612E0,4.376321E0,1.2135081E0,0E0,0E0,1.7203522E0,0E0,0E0,0E0,0E0,0E0,0E0,0E0,0E0,0E0,0E0,0E0,0E0,0E0,0E0,0E0,0E0,0E0,0E0,0E0,0E0,0E0,0E0,0E0,0E0,0E0,0E0,0E0,0E0,0E0,0E0,0E0,0E0,0E0,0E0,0E0,0E0,0E0,0E0,0E0,0E0,0E0,0E0,0E0,0E0,0E0,0E0,0E0,0E0],"parents":[2147483647,0,0,1,1,2,2,3,3,4,4,5,5,6,6,7,7,8,8,9,9,10,10,11,11,12,12,13,13,14,14,15,15,16,16,17,17,18,18,19,19,20,20,21,21,22,22,23,23,24,24,25,25,26,26,27,27,28,28,29,29,31,31,32,32,33,33,34,34,35,35,36,36,37,37,38,38,39,39,40,40,42,42,43,43,45,45,46,46,47,47,48,48,49,49,50,50,52,52,54,54,55,55,56,56,57,57,60,60],"right_children":[2,4,6,8,10,12,14,16,18,20,22,24,26,28,30,32,34,36,38,40,42,44,46,48,50,52,54,56,58,60,-1,62,64,66,68,70,72,74,76,78,80,-1,82,84,-1,86,88,90,92,94,96,-1,98,-1,100,102,104,106,-1,-1,108,-1,-1,-1,-1,-1,-1,-1,-1,-1,-1,-1,-1,-1,-1,-1,-1,-1,-1,-1,-1,-1,-1,-1,-1,-1,-1,-1,-1,-1,-1,-1,-1,-1,-1,-1,-1,-1,-1,-1,-1,-1,-1,-1,-1,-1,-1,-1,-1],"split_conditions":[-2.388896E-1,-2.1512476E-3,-5.161419E-3,4.614347E-1,-2.9071444E-1,4.5270693E-1,-7.7135026E-1,1.5099356E-2,-6.094291E-1,4.4552315E-2,-8.230062E-1,-1.4534296E-1,-1.767077E-1,-2.8013E-1,4.3619356E0,-1.7066547E-1,-2.6832643E-1,-8.5627764E-1,-4.2603508E-1,-4.4753876E-1,-8.408176E-1,-3.8973045E-1,-6.4699095E-1,3.8038635E-1,-7.8813213E-1,-8.7874866E-1,-3.1088454E-1,-1.4395921E-1,-9.3026876E-1,-4.4516397E-1,1.1940465E-1,3.1265813E-1,-7.081829E-1,2.926425E-1,-4.0455502E-1,-3.6874896E-1,-1.2400847E-1,-4.5921403E-1,-7.9231954E-1,6.345584E-1,-7.650064E-1,2.853206E-1,-8.583199E-1,-8.6497396E-1,-2.7706778E-1,-9.70765E-1,-9.7176117E-1,-1.9790775E-1,-3.61502E-1,-6.8704836E-2,1.3000111E-1,2.8829944E-1,-8.262408E-1,-3.1606782E-2,-1.0025958E0,7.298412E-1,7.7162814E-1,-1.3133934E-1,-3.0640084E-1,1.0188448E-1,-1.0981426E0,2.5520024E-1,-3.296932E-2,2.4850893E-1,-3.7196167E-2,1.3584682E-1,-2.0227607E-1,2.1973444E-2,-2.434536E-1,5.720086E-1,7.17783E-2,8.5197985E-2,-2.269047E-1,-1.6104907E-1,4.3787307E-1,7.4470684E-2,-3.333608E-1,3.2211605E-1,-5.3560916E-2,3.981717E-1,-1.7040914E-1,4.7589466E-3,-2.3393643E-1,-4.8313793E-2,7.5546056E-1,4.2232183E-1,-2.278395E-1,1.3997316E-1,-2.9312092E-1,2.025996E-1,-7.597455E-2,-4.671135E-3,-2.99302E-1,7.287575E-1,-8.3704226E-2,-1.0121723E-1,-2.7363515E-1,1.5094355E-1,-2.6194966E-1,-4.5684658E-2,-3.310318E-1,-2.592663E-1,2.1900187E-1,4.710105E-1,-9.8271415E-2,1.0649207E-1,-2.1564975E-1,-1.6462276E-2,-3.157037E-1],"split_indices":[32,21,17,5,5,29,25,13,13,25,9,5,1,9,37,29,17,21,4,37,17,17,28,25,9,21,24,24,29,24,0,9,5,33,9,4,33,20,9,21,17,0,5,36,0,33,17,13,21,33,9,0,5,0,13,17,17,1,0,0,33,0,0,0,0,0,0,0,0,0,0,0,0,0,0,0,0,0,0,0,0,0,0,0,0,0,0,0,0,0,0,0,0,0,0,0,0,0,0,0,0,0,0,0,0,0,0,0,0],"split_type":[0,0,0,0,0,0,0,0,0,0,0,0,0,0,0,0,0,0,0,0,0,0,0,0,0,0,0,0,0,0,0,0,0,0,0,0,0,0,0,0,0,0,0,0,0,0,0,0,0,0,0,0,0,0,0,0,0,0,0,0,0,0,0,0,0,0,0,0,0,0,0,0,0,0,0,0,0,0,0,0,0,0,0,0,0,0,0,0,0,0,0,0,0,0,0,0,0,0,0,0,0,0,0,0,0,0,0,0,0],"sum_hessian":[1.148481E3,6.79624E2,4.6885687E2,4.8214212E2,1.9748192E2,2.7857947E2,1.9027744E2,4.335739E2,4.8568207E1,1.1998313E2,7.749879E1,2.158455E2,6.2733944E1,1.9939795E1,1.7033763E2,2.9258167E2,1.4099223E2,1.4384479E1,3.4183727E1,6.983024E1,5.0152897E1,6.0278687E0,7.147092E1,1.1336489E2,1.0248062E2,2.4702822E1,3.803112E1,1.0340606E1,9.599189E0,1.6930862E2,1.0290047E0,1.75481E2,1.1710067E2,7.382069E1,6.717155E1,2.346202E0,1.2038277E1,1.0252328E1,2.39314E1,3.5089703E1,3.4740536E1,1.6944735E0,4.8458424E1,2.9779785E0,3.0498905E0,8.131238E0,6.333968E1,9.3498024E1,1.9866863E1,8.022375E0,9.4458244E1,1.7506958E0,2.2952126E1,1.0401502E0,3.699097E1,6.0891986E0,4.2514067E0,2.5410466E0,7.058142E0,1.0946784E0,1.6821396E2,1.503186E2,2.5162403E1,2.6097723E1,9.1002945E1,6.366968E1,1.0151E1,2.8839584E1,3.8331966E1,1.2278936E0,1.1183082E0,7.373909E0,4.664367E0,8.333715E0,1.9186124E0,1.1089346E0,2.2822466E1,2.432066E1,1.0769043E1,5.736289E0,2.9004246E1,7.6203976E0,4.0838028E1,1.0271235E0,1.9508549E0,3.3176076E0,4.8136306E0,1.4294945E0,6.1910187E1,5.937133E1,3.4126694E1,7.2959666E0,1.2570895E1,2.7965186E0,5.225857E0,5.331717E1,4.114108E1,3.2646563E0,1.968747E1,1.0333886E0,3.5957584E1,4.96398E0,1.1252184E0,2.9217663E0,1.3296405E0,1.0021293E0,1.5389172E0,1.8614185E0,1.6635254E2],"tree_param":{"num_deleted":"0","num_feature":"40","num_nodes":"109","size_leaf_vector":"1"}},{"base_weights":[-1.6559097E-1,-4.146703E-2,-7.054544E-1,1.7336991E-1,-2.7401873E-1,-4.11997E-1,-1.0055648E0,4.271497E-1,-3.972463E-2,-9.806643E-2,-6.852045E-1,3.7717292E-1,-6.029457E-1,-4.6249315E-1,-1.0379611E0,1.6252481E0,3.705391E-1,1.64627E-1,-3.571483E-1,1.9948673E-1,-3.3554313E-1,-6.327413E-2,-8.392131E-1,8.404639E-1,-5.563494E-1,-3.0862185E-1,-9.4695544E-1,-2.8490862E-1,2.8499007E-1,-5.527031E-1,-3.2108435E-1,1.1325603E-1,5.6353074E-1,4.979661E-1,-2.8829047E-1,5.730515E-1,-5.0296612E-2,4.137804E-2,-6.268314E-1,7.637926E-1,2.566373E-2,-1.965942E-1,-8.203025E-1,7.983457E-1,-5.453939E-1,-3.5241157E-1,-1.0053666E0,-8.32303E-1,1.3240758E0,-8.6566037E-1,9.432429E-2,1.4112704E-1,-6.1143327E-1,2.4815623E-1,-1.0334164E0,8.252111E-2,-8.552784E-1,1.6316456E-1,-3.2228374E-1,6.308511E-2,-2.4775915E-1,2.602422E-1,-1.1564625E-1,-1.6553068E-1,4.3280773E-2,-8.6021766E-2,2.418966E-1,-9.910414E-2,-2.971064E-1,4.145151E-1,4.93174E-2,7.3563255E-2,-1.7218712E-1,7.2719716E-2,-1.2630238E-1,-4.549862E-2,-2.911303E-1,4.0102616E-1,-6.61137E-2,9.0811215E-2,-2.7010834E-1,1.0746768E-1,-1.9924384E-1,8.348083E-2,-3.0855718E-1,-3.0305466E-1,-5.161114E-2,5.4177374E-1,-8.819539E-2,-3.001771E-1,-4.444147E-2,3.0066732E-1,-8.847242E-2,2.280324E-1,-2.1417901E-1,-3.24912E-1,-3.8966473E-2,-4.040027E-2,-2.9316685E-1],"categories":[],"categories_nodes":[],"categories_segments":[],"categories_sizes":[],"default_left":[0,0,0,0,0,0,0,0,0,0,0,0,0,0,0,0,0,0,0,0,0,0,0,0,0,0,0,0,0,0,0,0,0,0,0,0,0,0,0,0,0,0,0,0,0,0,0,0,0,0,0,0,0,0,0,0,0,0,0,0,0,0,0,0,0,0,0,0,0,0,0,0,0,0,0,0,0,0,0,0,0,0,0,0,0,0,0,0,0,0,0,0,0,0,0,0,0,0,0],"id":3,"left_children":[1,3,5,7,9,11,13,15,17,19,21,23,25,27,29,31,33,35,37,39,41,43,45,47,49,51,53,-1,-1,55,-1,-1,-1,57,59,61,63,65,67,69,71,73,75,77,79,81,83,85,87,89,-1,91,93,-1,95,-1,97,-1,-1,-1,-1,-1,-1,-1,-1,-1,-1,-1,-1,-1,-1,-1,-1,-1,-1,-1,-1,-1,-1,-1,-1,-1,-1,-1,-1,-1,-1,-1,-1,-1,-1,-1,-1,-1,-1,-1,-1,-1,-1],"loss_changes":[7.282515E1,4.4264633E1,1.7479591E1,2.492869E1,3.0708996E1,1.59629E1,1.275032E0,1.3664135E1,1.6360493E1,2.1200039E1,1.2141117E1,9.532169E0,8.259672E0,6.007965E0,8.723068E-1,2.1956139E0,1.7114208E1,1.3509359E1,1.0638268E1,1.30628605E1,1.1067139E1,1.138145E1,7.892685E0,1.275575E1,2.3065562E0,6.487491E0,6.754513E0,0E0,0E0,2.2129903E0,0E0,0E0,0E0,1.2838715E1,9.124103E0,1.530043E1,9.986913E0,1.0468951E1,6.0266514E0,1.1393087E1,1.3700113E1,1.2995673E1,3.549179E0,5.7027607E0,5.537926E0,6.3266964E0,2.5297775E0,2.7777147E-1,9.544218E0,4.1716862E-1,0E0,7.70169E0,4.5178413E0,0E0,1.5235786E0,0E0,3.9792347E-1,0E0,0E0,0E0,0E0,0E0,0E0,0E0,0E0,0E0,0E0,0E0,0E0,0E0,0E0,0E0,0E0,0E0,0E0,0E0,0E0,0E0,0E0,0E0,0E0,0E0,0E0,0E0,0E0,0E0,0E0,0E0,0E0,0E0,0E0,0E0,0E0,0E0,0E0,0E0,0E0,0E0,0E0],"parents":[2147483647,0,0,1,1,2,2,3,3,4,4,5,5,6,6,7,7,8,8,9,9,10,10,11,11,12,12,13,13,14,14,15,15,16,16,17,17,18,18,19,19,20,20,21,21,22,22,23,23,24,24,25,25,26,26,29,29,33,33,34,34,35,35,36,36,37,37,38,38,39,39,40,40,41,41,42,42,43,43,44,44,45,45,46,46,47,47,48,48,49,49,51,51,52,52,54,54,56,56],"right_children":[2,4,6,8,10,12,14,16,18,20,22,24,26,28,30,32,34,36,38,40,42,44,46,48,50,52,54,-1,-1,56,-1,-1,-1,58,60,62,64,66,68,70,72,74,76,78,80,82,84,86,88,90,-1,92,94,-1,96,-1,98,-1,-1,-1,-1,-1,-1,-1,-1,-1,-1,-1,-1,-1,-1,-1,-1,-1,-1,-1,-1,-1,-1,-1,-1,-1,-1,-1,-1,-1,-1,-1,-1,-1,-1,-1,-1,-1,-1,-1,-1,-1,-1],"split_conditions":[3.941415E-1,-3.147774E-1,-1.6618398E-1,-3.7350497E-1,1.0078449E-1,-7.7623993E-1,-9.153184E-1,-8.7971455E-1,-3.4701994E-1,-3.830955E-1,-6.814616E-1,-1.3254328E-1,-4.9414083E-1,-9.437934E-1,-7.4109113E-1,-6.285651E-1,2.1782424E-1,-5.6273264E-1,-4.3776223E-1,-5.5295473E-1,3.0865625E-1,-4.8534858E-1,-3.8596752E-1,-5.731713E-1,-1.7617096E-1,-6.6654646E-1,-6.141796E-1,-2.8490862E-1,2.8499007E-1,-9.1765916E-1,-3.2108435E-1,1.1325603E-1,5.6353074E-1,1.1201086E0,5.95849E-2,5.9733402E-2,-5.631973E-1,-5.931004E-1,-4.334349E-1,5.727248E-3,5.7894792E-3,-6.2286645E-1,-5.7895565E-1,1.667058E-2,-6.9329506E-1,-6.1225295E-1,-4.9272567E-1,-8.8172615E-1,1.8646163E-1,1.4932203E-1,9.432429E-2,-2.7005026E-1,-6.367356E-1,2.4815623E-1,-1.4891769E-1,8.252111E-2,-9.3297344E-1,1.6316456E-1,-3.2228374E-1,6.308511E-2,-2.4775915E-1,2.602422E-1,-1.1564625E-1,-1.6553068E-1,4.3280773E-2,-8.6021766E-2,2.418966E-1,-9.910414E-2,-2.971064E-1,4.145151E-1,4.93174E-2,7.3563255E-2,-1.7218712E-1,7.2719716E-2,-1.2630238E-1,-4.549862E-2,-2.911303E-1,4.0102616E-1,-6.61137E-2,9.0811215E-2,-2.7010834E-1,1.0746768E-1,-1.9924384E-1,8.348083E-2,-3.0855718E-1,-3.0305466E-1,-5.161114E-2,5.4177374E-1,-8.819539E-2,-3.001771E-1,-4.444147E-2,3.0066732E-1,-8.847242E-2,2.280324E-1,-2.1417901E-1,-3.24912E-1,-3.8966473E-2,-4.040027E-2,-2.9316685E-1],"split_indices":[25,8,8,17,5,33,1,5,29,21,13,5,9,1,21,16,29,37,13,9,29,33,9,24,37,5,8,0,0,17,0,0,0,21,33,13,0,13,1,29,13,1,33,1,29,17,0,33,21,29,0,21,24,0,16,0,36,0,0,0,0,0,0,0,0,0,0,0,0,0,0,0,0,0,0,0,0,0,0,0,0,0,0,0,0,0,0,0,0,0,0,0,0,0,0,0,0,0,0],"split_type":[0,0,0,0,0,0,0,0,0,0,0,0,0,0,0,0,0,0,0,0,0,0,0,0,0,0,0,0,0,0,0,0,0,0,0,0,0,0,0,0,0,0,0,0,0,0,0,0,0,0,0,0,0,0,0,0,0,0,0,0,0,0,0,0,0,0,0,0,0,0,0,0,0,0,0,0,0,0,0,0,0,0,0,0,0,0,0,0,0,0,0,0,0,0,0,0,0,0,0],"sum_hessian":[1.0862172E3,8.8403827E2,2.0217888E2,4.5965356E2,4.243847E2,1.034222E2,9.8756676E1,2.093403E2,2.5031326E2,2.9807333E2,1.2631137E2,1.9958923E1,8.346328E1,6.4195437E0,9.233713E1,8.194923E0,2.0114537E2,1.5257172E2,9.7741554E1,1.3237292E2,1.6570042E2,2.5350346E1,1.0096103E2,1.3405627E1,6.553295E0,4.6002304E1,3.746098E1,5.0167413E0,1.4028026E0,6.896264E0,8.5440865E1,1.8026067E0,6.392317E0,1.6875073E2,3.2394634E1,5.2030533E1,1.00541176E2,3.9789253E1,5.7952305E1,3.0373407E1,1.0199952E2,1.2987831E2,3.5822105E1,8.860107E0,1.649024E1,2.6485113E1,7.4475914E1,2.844783E0,1.0560844E1,4.8399267E0,1.7133684E0,1.872502E1,2.7277285E1,1.3426739E0,3.6118305E1,1.8703468E0,5.025917E0,1.645979E2,4.1528287E0,1.7122833E1,1.5271801E1,3.9877014E1,1.2153521E1,2.7591415E1,7.294976E1,2.8282728E1,1.1506523E1,3.297065E1,2.4981655E1,1.4312967E1,1.606044E1,7.509503E1,2.6904484E1,4.390742E1,8.5970894E1,6.9370093E0,2.8885096E1,5.592317E0,3.2677898E0,4.9089255E0,1.1581314E1,8.030185E0,1.8454927E1,1.124549E0,7.3351364E1,1.8235471E0,1.0212361E0,8.048124E0,2.5127199E0,3.7417777E0,1.0981492E0,5.8579807E0,1.286704E1,1.4505876E0,2.5826696E1,3.4049553E1,2.0687525E0,1.0319732E0,3.993944E0],"tree_param":{"num_deleted":"0","num_feature":"40","num_nodes":"99","size_leaf_vector":"1"}},{"base_weights":[-1.3673086E-1,-5.8724333E-2,-7.5963366E-1,7.509063E-2,-4.1076273E-1,-3.0217743E-1,-9.532886E-1,2.0282425E-1,-2.4652453E-1,-2.154042E-1,-7.703066E-1,1.1077054E0,-4.77924E-1,1.4606419E-1,-9.8915637E-1,2.5114325E-1,-5.396657E-1,-4.721775E-2,-8.3147633E-1,2.285092E-2,-6.434834E-1,-4.2502326E-1,-9.355337E-1,5.2036554E-1,-2.7247101E-2,-1.0449151E-2,-8.404134E-1,-1.0272435E0,-4.7736523E-1,3.7581754E-1,-4.459197E-2,-1.3105044E-1,-1.0732319E0,2.1464346E-1,-5.644641E-1,2.441654E-1,-8.84639E-1,2.8679436E-1,-3.3366358E-1,-6.7325525E-2,-9.073364E-1,-7.2444105E-1,5.9894973E-1,-2.6034215E-1,-1.0044762E0,1.2500141E0,-4.648103E-1,1.1904324E-1,-9.7779113E-1,-4.46453E-2,-1.0479307E0,1.6219836E-1,-7.938505E-1,1.8447399E-1,3.252844E-2,1.3250281E-1,-7.735113E-2,2.3896714E-1,-1.7517707E-1,-3.6246693E-1,2.84878E-2,3.1150067E-1,2.0527784E-2,-6.0569234E-2,-2.494417E-1,-5.586045E-2,-2.9435635E-1,3.096526E-1,2.8874982E-2,-3.2792013E-2,-3.1214967E-1,6.055476E-1,-9.176264E-2,-7.818612E-2,-3.2382712E-1,2.3230176E-2,-2.8724694E-1,3.581608E-1,-1.01764E-1,1.5905413E-1,-2.561369E-1,-8.891878E-2,-3.095371E-1,5.194762E-1,-4.5665376E-2,-2.7083477E-1,7.0827544E-2,-1.8649271E-1,2.5099322E-1,-3.1109348E-1,-5.8936242E-2,-3.1856552E-1,-9.676924E-2,-2.7881444E-1,-5.0285842E-2],"categories":[],"categories_nodes":[],"categories_segments":[],"categories_sizes":[],"default_left":[0,0,0,0,0,0,0,0,0,0,0,0,0,0,0,0,0,0,0,0,0,0,0,0,0,0,0,0,0,0,0,0,0,0,0,0,0,0,0,0,0,0,0,0,0,0,0,0,0,0,0,0,0,0,0,0,0,0,0,0,0,0,0,0,0,0,0,0,0,0,0,0,0,0,0,0,0,0,0,0,0,0,0,0,0,0,0,0,0,0,0,0,0,0,0],"id":4,"left_children":[1,3,5,7,9,11,13,15,17,19,21,23,25,-1,27,29,31,33,35,37,39,41,43,-1,-1,45,47,49,51,53,55,57,59,61,63,-1,65,67,69,71,73,75,77,79,81,83,85,87,89,-1,91,-1,93,-1,-1,-1,-1,-1,-1,-1,-1,-1,-1,-1,-1,-1,-1,-1,-1,-1,-1,-1,-1,-1,-1,-1,-1,-1,-1,-1,-1,-1,-1,-1,-1,-1,-1,-1,-1,-1,-1,-1,-1,-1,-1],"loss_changes":[5.0212288E1,4.3382866E1,9.901962E0,2.7477833E1,1.7648144E1,9.369145E0,4.6321793E0,1.729918E1,2.21399E1,1.691654E1,4.674141E0,3.3547258E0,5.4849243E0,0E0,1.0442429E0,1.6603432E1,6.3016863E0,1.9483835E1,4.943695E0,1.0204716E1,8.951973E0,9.817308E0,2.4986343E0,0E0,0E0,9.270157E0,2.5216074E0,1.1598434E0,2.788026E0,2.0171501E1,1.4040278E1,7.973317E0,2.1136742E0,1.14466E1,4.510192E0,0E0,3.0038033E0,8.744223E0,7.206884E0,1.0421053E1,4.2354813E0,4.584075E0,4.5752463E0,3.6631393E0,7.279701E-1,3.161234E0,3.8603246E0,2.2087183E0,5.3947926E-1,0E0,3.7184143E-1,0E0,3.5261822E-1,0E0,0E0,0E0,0E0,0E0,0E0,0E0,0E0,0E0,0E0,0E0,0E0,0E0,0E0,0E0,0E0,0E0,0E0,0E0,0E0,0E0,0E0,0E0,0E0,0E0,0E0,0E0,0E0,0E0,0E0,0E0,0E0,0E0,0E0,0E0,0E0,0E0,0E0,0E0,0E0,0E0,0E0],"parents":[2147483647,0,0,1,1,2,2,3,3,4,4,5,5,6,6,7,7,8,8,9,9,10,10,11,11,12,12,14,14,15,15,16,16,17,17,18,18,19,19,20,20,21,21,22,22,25,25,26,26,27,27,28,28,29,29,30,30,31,31,32,32,33,33,34,34,36,36,37,37,38,38,39,39,40,40,41,41,42,42,43,43,44,44,45,45,46,46,47,47,48,48,50,50,52,52],"right_children":[2,4,6,8,10,12,14,16,18,20,22,24,26,-1,28,30,32,34,36,38,40,42,44,-1,-1,46,48,50,52,54,56,58,60,62,64,-1,66,68,70,72,74,76,78,80,82,84,86,88,90,-1,92,-1,94,-1,-1,-1,-1,-1,-1,-1,-1,-1,-1,-1,-1,-1,-1,-1,-1,-1,-1,-1,-1,-1,-1,-1,-1,-1,-1,-1,-1,-1,-1,-1,-1,-1,-1,-1,-1,-1,-1,-1,-1,-1,-1],"split_conditions":[5.534761E-1,9.428516E-2,-6.0035294E-1,-5.161419E-3,-6.087843E-2,-7.7043337E-1,-6.4243984E-1,8.0338275E-1,-1.1310056E-1,-4.845755E-2,-3.8249856E-1,-4.1462338E-1,-1.6106802E-1,1.4606419E-1,1.3850083E0,-5.438874E-2,-2.3804228E-1,-2.4225709E-1,-6.6098386E-1,-3.7540755E-1,-5.5295473E-1,-3.7085646E-1,-8.816417E-1,5.2036554E-1,-2.7247101E-2,-7.458634E-1,-8.8172615E-1,-6.1176467E-1,-4.0336645E-1,-1.1625494E-1,-4.9074858E-1,-5.377585E-1,5.6092364E-1,-1.120972E0,-4.2607158E-1,2.441654E-1,-6.4811957E-1,-5.994789E-1,-8.622971E-2,-5.073587E-1,-6.6803163E-1,-8.381138E-1,-4.8334002E-1,-6.063043E-1,-4.534976E-1,-6.9329506E-1,-4.3138388E-1,-7.768484E-1,7.4787873E-1,-4.46453E-2,1.0699298E1,1.6219836E-1,5.148615E-1,1.8447399E-1,3.252844E-2,1.3250281E-1,-7.735113E-2,2.3896714E-1,-1.7517707E-1,-3.6246693E-1,2.84878E-2,3.1150067E-1,2.0527784E-2,-6.0569234E-2,-2.494417E-1,-5.586045E-2,-2.9435635E-1,3.096526E-1,2.8874982E-2,-3.2792013E-2,-3.1214967E-1,6.055476E-1,-9.176264E-2,-7.818612E-2,-3.2382712E-1,2.3230176E-2,-2.8724694E-1,3.581608E-1,-1.01764E-1,1.5905413E-1,-2.561369E-1,-8.891878E-2,-3.095371E-1,5.194762E-1,-4.5665376E-2,-2.7083477E-1,7.0827544E-2,-1.8649271E-1,2.5099322E-1,-3.1109348E-1,-5.8936242E-2,-3.1856552E-1,-9.676924E-2,-2.7881444E-1,-5.0285842E-2],"split_indices":[9,29,21,17,21,5,20,33,9,1,24,17,4,0,36,21,37,32,0,13,9,20,13,0,0,25,33,16,4,1,25,24,5,36,25,0,5,33,5,0,25,1,17,5,0,29,28,17,17,0,14,0,37,0,0,0,0,0,0,0,0,0,0,0,0,0,0,0,0,0,0,0,0,0,0,0,0,0,0,0,0,0,0,0,0,0,0,0,0,0,0,0,0,0,0],"split_type":[0,0,0,0,0,0,0,0,0,0,0,0,0,0,0,0,0,0,0,0,0,0,0,0,0,0,0,0,0,0,0,0,0,0,0,0,0,0,0,0,0,0,0,0,0,0,0,0,0,0,0,0,0,0,0,0,0,0,0,0,0,0,0,0,0,0,0,0,0,0,0,0,0,0,0,0,0,0,0,0,0,0,0,0,0,0,0,0,0,0,0,0,0,0,0],"sum_hessian":[1.0332949E3,9.192686E2,1.14026344E2,6.6665137E2,2.5261728E2,3.4675488E1,7.935085E1,4.7741083E2,1.8924052E2,1.6471715E2,8.790013E1,3.2555773E0,3.141991E1,1.6226708E0,7.772818E1,4.48862E2,2.8548828E1,1.4195415E2,4.728638E1,1.0642888E2,5.8288265E1,2.9605145E1,5.829499E1,1.8439392E0,1.4116381E0,1.4172084E1,1.7247826E1,7.140698E1,6.321204E0,3.155595E2,1.3330249E2,1.6872873E1,1.1675956E1,9.463118E1,4.7322968E1,1.03216E0,4.625422E1,6.1266293E1,4.5162586E1,1.8702986E1,3.958528E1,2.3133303E1,6.4718413E0,5.843417E0,5.2451572E1,3.291061E0,1.0881022E1,2.1769938E0,1.5070832E1,1.8314942E0,6.9575485E1,1.3311177E0,4.9900866E0,1.6590762E2,1.4965189E2,4.031043E1,9.299206E1,5.286265E0,1.1586608E1,1.0435774E1,1.2401817E0,1.33462105E1,8.128497E1,2.081488E1,2.6508087E1,5.9731045E0,4.0281116E1,1.1573915E1,4.969238E1,3.5157784E1,1.0004804E1,1.1537133E0,1.754927E1,8.848072E0,3.073721E1,5.3596225E0,1.777368E1,3.793622E0,2.6782193E0,2.551376E0,3.2920413E0,2.3883522E0,5.006322E1,2.2749043E0,1.0161568E0,6.5192895E0,4.3617334E0,1.137068E0,1.0399258E0,1.3705445E1,1.3653871E0,6.780711E1,1.7683678E0,3.7043023E0,1.285784E0],"tree_param":{"num_deleted":"0","num_feature":"40","num_nodes":"95","size_leaf_vector":"1"}},{"base_weights":[-1.1232719E-1,-2.4470909E-2,-5.7774806E-1,4.784675E-2,-5.5753094E-1,-3.6029774E-1,-9.7201943E-1,2.2214474E-1,-1.6628256E-1,-3.942855E-1,-1.0032433E0,-1.6936603E-1,-7.253635E-1,-2.7461547E-1,-3.0464572E-1,4.039859E-1,-2.452639E-2,1.20078415E-1,-3.6812606E-1,6.160414E-1,-4.622321E-1,-4.7408007E-2,-3.0954266E-1,-2.8769702E-1,6.7743003E-1,-4.8342866E-1,-1.0056741E0,2.6538256E-1,-2.5202912E-1,4.7725725E-1,-3.5828552E-1,1.5010723E-1,-5.485288E-1,2.7701348E-1,-6.569776E-1,-1.1750654E-1,-6.3747615E-1,-1.9648424E-1,4.9907154E-1,9.2375144E-2,-6.171485E-1,2.4159811E-2,-6.2733054E-1,1.3624271E0,-2.3273236E-1,-6.545977E-1,5.572656E-1,-3.2109666E-1,-2.1334993E-2,3.5598356E-1,1.1392871E-1,-1.8433344E-1,1.6721961E-1,4.1670027E-1,2.4840394E-2,6.7939505E-2,-2.3708794E-1,4.1611168E-1,4.8227265E-2,-6.888201E-5,-2.699148E-1,1.8766107E-2,-2.2331281E-1,3.043035E-1,-2.0397894E-1,-2.218477E-1,1.7366081E-1,1.8576083E-1,-2.9022476E-1,-2.4198017E-1,-7.1321495E-2,9.989528E-2,-1.334858E-1,5.5880863E-3,-2.894955E-1,4.8474503E-1,6.8513475E-2,1.7806111E-1,-2.2860238E-1,-2.4664657E-1,6.1675154E-2,4.7512966E-1,-1.9175994E-1],"categories":[],"categories_nodes":[],"categories_segments":[],"categories_sizes":[],"default_left":[0,0,0,0,0,0,0,0,0,0,0,0,0,0,0,0,0,0,0,0,0,0,0,0,0,0,0,0,0,0,0,0,0,0,0,0,0,0,0,0,0,0,0,0,0,0,0,0,0,0,0,0,0,0,0,0,0,0,0,0,0,0,0,0,0,0,0,0,0,0,0,0,0,0,0,0,0,0,0,0,0,0,0],"id":5,"left_children":[1,3,5,7,9,11,13,15,17,19,21,23,25,27,-1,29,31,33,35,37,39,-1,-1,41,43,45,47,-1,-1,49,51,53,55,57,59,61,63,65,-1,67,69,71,73,75,77,79,81,-1,-1,-1,-1,-1,-1,-1,-1,-1,-1,-1,-1,-1,-1,-1,-1,-1,-1,-1,-1,-1,-1,-1,-1,-1,-1,-1,-1,-1,-1,-1,-1,-1,-1,-1,-1],"loss_changes":[4.054005E1,3.2228756E1,1.3148121E1,2.7523794E1,6.870865E0,7.0611E0,1.3998299E0,1.8240093E1,1.9178776E1,5.415758E0,4.6769714E-1,7.1065593E0,1.8934269E0,3.7714236E0,0E0,1.3241306E1,1.5950924E1,1.6964682E1,1.3049627E1,4.700538E0,6.12321E0,0E0,0E0,6.4996114E0,5.775555E0,4.062708E0,8.5004616E-1,0E0,0E0,1.4343845E1,5.289997E0,1.0795885E1,8.340879E0,1.46434555E1,3.7334843E0,1.1552997E1,7.245365E0,2.023017E0,0E0,9.691689E0,3.784586E0,4.911462E0,6.417981E0,1.1083927E0,2.4699876E0,2.804706E0,5.2768908E0,0E0,0E0,0E0,0E0,0E0,0E0,0E0,0E0,0E0,0E0,0E0,0E0,0E0,0E0,0E0,0E0,0E0,0E0,0E0,0E0,0E0,0E0,0E0,0E0,0E0,0E0,0E0,0E0,0E0,0E0,0E0,0E0,0E0,0E0,0E0,0E0],"parents":[2147483647,0,0,1,1,2,2,3,3,4,4,5,5,6,6,7,7,8,8,9,9,10,10,11,11,12,12,13,13,15,15,16,16,17,17,18,18,19,19,20,20,23,23,24,24,25,25,26,26,29,29,30,30,31,31,32,32,33,33,34,34,35,35,36,36,37,37,39,39,40,40,41,41,42,42,43,43,44,44,45,45,46,46],"right_children":[2,4,6,8,10,12,14,16,18,20,22,24,26,28,-1,30,32,34,36,38,40,-1,-1,42,44,46,48,-1,-1,50,52,54,56,58,60,62,64,66,-1,68,70,72,74,76,78,80,82,-1,-1,-1,-1,-1,-1,-1,-1,-1,-1,-1,-1,-1,-1,-1,-1,-1,-1,-1,-1,-1,-1,-1,-1,-1,-1,-1,-1,-1,-1,-1,-1,-1,-1,-1,-1],"split_conditions":[3.941415E-1,4.7596148E-1,-1.0510208E-1,-2.3316684E-1,1.7181171E-1,-3.2046458E-1,-9.1765916E-1,-1.1625494E-1,-3.7955993E-1,-1.0981426E0,-6.0032624E-1,-1.7899115E-1,-3.8019833E-1,-3.7807354E-1,-3.0464572E-1,6.582175E-1,2.3903623E-1,1.23936564E-1,-3.5361403E-1,-3.013986E-1,-7.437065E-1,-4.7408007E-2,-3.0954266E-1,-5.8204985E-1,-3.61502E-1,-4.5660627E-1,4.4818205E-1,2.6538256E-1,-2.5202912E-1,-7.809746E-1,9.328562E-1,-1.038927E0,-6.980078E-1,-9.2501765E-1,-7.571297E-1,-7.952159E-2,-6.519351E-1,-2.1606028E-1,4.9907154E-1,-5.191481E-1,2.1138217E-2,-6.915905E-2,-5.840318E-1,-3.464012E-1,-3.4701994E-1,3.874576E-1,-4.1892E-1,-3.2109666E-1,-2.1334993E-2,3.5598356E-1,1.1392871E-1,-1.8433344E-1,1.6721961E-1,4.1670027E-1,2.4840394E-2,6.7939505E-2,-2.3708794E-1,4.1611168E-1,4.8227265E-2,-6.888201E-5,-2.699148E-1,1.8766107E-2,-2.2331281E-1,3.043035E-1,-2.0397894E-1,-2.218477E-1,1.7366081E-1,1.8576083E-1,-2.9022476E-1,-2.4198017E-1,-7.1321495E-2,9.989528E-2,-1.334858E-1,5.5880863E-3,-2.894955E-1,4.8474503E-1,6.8513475E-2,1.7806111E-1,-2.2860238E-1,-2.4664657E-1,6.1675154E-2,4.7512966E-1,-1.9175994E-1],"split_indices":[25,5,16,13,9,5,17,1,9,33,20,0,17,1,0,29,33,21,4,24,13,0,0,9,21,17,1,0,0,21,27,29,5,29,5,1,28,13,0,21,24,17,33,17,29,33,32,0,0,0,0,0,0,0,0,0,0,0,0,0,0,0,0,0,0,0,0,0,0,0,0,0,0,0,0,0,0,0,0,0,0,0,0],"split_type":[0,0,0,0,0,0,0,0,0,0,0,0,0,0,0,0,0,0,0,0,0,0,0,0,0,0,0,0,0,0,0,0,0,0,0,0,0,0,0,0,0,0,0,0,0,0,0,0,0,0,0,0,0,0,0,0,0,0,0,0,0,0,0,0,0,0,0,0,0,0,0,0,0,0,0,0,0,0,0,0,0,0,0],"sum_hessian":[9.9078394E2,8.343403E2,1.5644365E2,7.3547253E2,9.886774E1,1.02065735E2,5.437792E1,4.054252E2,3.3004736E2,7.3743324E1,2.5124414E1,6.797717E1,3.4088562E1,3.6196418E0,5.0758278E1,2.3301404E2,1.7241116E2,1.3662242E2,1.9342493E2,4.138574E0,6.9604744E1,1.034907E0,2.4089508E1,6.0222023E1,7.755151E0,1.9759144E1,1.4329417E1,1.0017443E0,2.6178975E0,2.1292142E2,2.0092625E1,1.2984982E2,4.2561348E1,1.14201645E2,2.2420778E1,1.00940285E2,9.248465E1,2.7882645E0,1.3503097E0,1.5285546E1,5.4319202E1,3.187905E1,2.8342974E1,4.1413927E0,3.6137578E0,1.7286871E1,2.4722738E0,1.32664385E1,1.0629783E0,2.4378326E1,1.8854309E2,1.5957539E1,4.135085E0,5.6790457E0,1.2417077E2,1.0135265E1,3.2426083E1,9.790444E0,1.044112E2,6.320664E0,1.6100115E1,7.911556E1,2.182472E1,1.7437642E0,9.074088E1,1.6670328E0,1.1212317E0,1.0487759E1,4.7977877E0,3.5477955E1,1.8841244E1,1.939873E1,1.248032E1,1.0053922E1,1.8289053E1,3.0378094E0,1.1035833E0,1.3635935E0,2.2501645E0,1.4505506E1,2.781365E0,1.1564237E0,1.31585E0],"tree_param":{"num_deleted":"0","num_feature":"40","num_nodes":"83","size_leaf_vector":"1"}},{"base_weights":[-9.12312E-2,5.9842137E-3,-4.3729228E-1,3.392804E-1,-1.0018341E-1,-1.9223635E-1,-7.166042E-1,1.1284955E0,2.2615221E-1,1.9132577E-1,-2.4232925E-1,8.167139E-2,-6.069401E-1,-1.05311796E-1,-8.966576E-1,1.5678654E0,1.0795346E-1,3.160014E-1,-4.7448128E-1,3.1630817E-1,-3.4813556E-1,8.0923535E-2,-4.020709E-1,4.1173533E-1,-2.7021936E-1,-1.19596496E-1,-9.485316E-1,5.1690406E-1,-8.8955474E-1,1.9167885E-1,-9.387548E-1,1.728759E0,-1.08533524E-1,9.2398286E-1,-2.665551E-1,5.962495E-1,4.8038056E-3,-3.6525053E-1,6.380649E-2,6.835146E-1,1.4698651E-1,1.1099948E-1,-6.0328877E-1,2.839734E-1,-4.9251366E-1,-2.716158E-1,-7.076702E-1,2.1437964E-1,1.31878E0,5.600364E-1,-4.9942288E-1,-8.199485E-1,1.0264432E0,1.8152954E-1,-1.0461656E0,9.1603667E-1,-6.1239356E-1,-3.217661E-1,-3.287205E-1,1.13622285E-1,-9.700263E-1,3.4830457E-1,7.2719043E-1,1.0590654E-1,4.372975E-1,2.0529827E-1,-2.0038356E-1,2.2630323E-1,-7.072171E-2,1.7246848E-1,-2.400091E-1,2.9452646E-1,-1.6541544E-2,1.7308739E-1,6.475355E-4,-5.6063633E-2,3.369376E-1,1.6460073E-1,-2.2027396E-1,1.9002935E-1,-3.0273046E-2,9.4681405E-2,-2.2245324E-1,-3.917222E-2,-1.9841968E-1,-1.0706325E-1,-2.710228E-1,3.3548135E-1,-1.2140535E-2,4.9480507E-1,-5.847059E-2,-2.3355435E-1,2.799022E-1,5.8516335E-2,-2.4633045E-1,-3.3768976E-1,-8.232556E-2,4.508515E-1,-1.4195868E-1,-2.544467E-2,-3.3283925E-1,-2.12182E-1,3.6628324E-1,-2.969618E-1,8.3002E-2,6.839711E-2,-2.3103647E-1,-1.2510909E-1,-3.027858E-1],"categories":[],"categories_nodes":[],"categories_segments":[],"categories_sizes":[],"default_left":[0,0,0,0,0,0,0,0,0,0,0,0,0,0,0,0,0,0,0,0,0,0,0,0,0,0,0,0,0,0,0,0,0,0,0,0,0,0,0,0,0,0,0,0,0,0,0,0,0,0,0,0,0,0,0,0,0,0,0,0,0,0,0,0,0,0,0,0,0,0,0,0,0,0,0,0,0,0,0,0,0,0,0,0,0,0,0,0,0,0,0,0,0,0,0,0,0,0,0,0,0,0,0,0,0,0,0,0,0],"id":6,"left_children":[1,3,5,7,9,11,13,15,17,19,21,23,25,27,29,31,33,35,37,39,41,43,45,47,49,51,53,55,57,-1,59,61,-1,63,-1,65,67,-1,69,71,73,75,77,79,81,83,85,87,89,91,93,95,97,-1,99,101,103,105,-1,-1,107,-1,-1,-1,-1,-1,-1,-1,-1,-1,-1,-1,-1,-1,-1,-1,-1,-1,-1,-1,-1,-1,-1,-1,-1,-1,-1,-1,-1,-1,-1,-1,-1,-1,-1,-1,-1,-1,-1,-1,-1,-1,-1,-1,-1,-1,-1,-1,-1],"loss_changes":[3.2152557E1,2.6468222E1,1.4208389E1,1.587825E1,2.3555098E1,1.2886471E1,1.0646252E1,9.87668E0,1.0177909E1,1.2686184E1,1.9748293E1,8.118369E0,7.389553E0,1.1847203E1,5.464138E0,5.464863E0,7.1770606E0,1.2363102E1,7.4793496E0,9.347984E0,4.2329783E0,1.4940178E1,1.0001938E1,6.156175E0,6.7441783E0,1.6667221E1,4.630493E0,6.7112427E0,8.9904785E-1,0E0,3.4015884E0,2.932949E0,0E0,9.442401E-1,0E0,8.763332E0,1.247294E1,0E0,5.6173778E0,1.0558655E1,6.5547E0,4.2943625E0,3.8746738E0,1.2775009E1,6.995982E0,9.854758E0,4.887562E0,7.1253977E0,3.4406157E0,4.6306953E0,6.2253942E0,1.8246613E0,6.371461E0,0E0,1.4370346E0,6.051855E0,1.6708341E0,1.2265674E0,0E0,0E0,1.1469955E0,0E0,0E0,0E0,0E0,0E0,0E0,0E0,0E0,0E0,0E0,0E0,0E0,0E0,0E0,0E0,0E0,0E0,0E0,0E0,0E0,0E0,0E0,0E0,0E0,0E0,0E0,0E0,0E0,0E0,0E0,0E0,0E0,0E0,0E0,0E0,0E0,0E0,0E0,0E0,0E0,0E0,0E0,0E0,0E0,0E0,0E0,0E0,0E0],"parents":[2147483647,0,0,1,1,2,2,3,3,4,4,5,5,6,6,7,7,8,8,9,9,10,10,11,11,12,12,13,13,14,14,15,15,16,16,17,17,18,18,19,19,20,20,21,21,22,22,23,23,24,24,25,25,26,26,27,27,28,28,30,30,31,31,33,33,35,35,36,36,38,38,39,39,40,40,41,41,42,42,43,43,44,44,45,45,46,46,47,47,48,48,49,49,50,50,51,51,52,52,54,54,55,55,56,56,57,57,60,60],"right_children":[2,4,6,8,10,12,14,16,18,20,22,24,26,28,30,32,34,36,38,40,42,44,46,48,50,52,54,56,58,-1,60,62,-1,64,-1,66,68,-1,70,72,74,76,78,80,82,84,86,88,90,92,94,96,98,-1,100,102,104,106,-1,-1,108,-1,-1,-1,-1,-1,-1,-1,-1,-1,-1,-1,-1,-1,-1,-1,-1,-1,-1,-1,-1,-1,-1,-1,-1,-1,-1,-1,-1,-1,-1,-1,-1,-1,-1,-1,-1,-1,-1,-1,-1,-1,-1,-1,-1,-1,-1,-1,-1],"split_conditions":[2.8183416E-1,-6.3395727E-1,-2.1682014E-1,-7.587607E-1,-6.010127E-1,-2.916104E-1,-8.61323E-1,3.913976E-1,3.928027E-1,2.583628E-1,-5.970433E-1,-5.191481E-1,-3.852611E-1,-3.4754544E-1,-8.987224E-1,1.5442668E0,6.8832314E-1,-8.246069E-2,-3.7992245E-1,-4.6543574E-1,-5.1637346E-1,1.8291986E-1,-3.6773108E-2,-5.7396924E-1,-7.0316935E-1,-4.0060169E-1,-9.686305E-1,8.002041E-1,-5.5097646E-1,1.9167885E-1,-6.1039114E-1,-2.7379423E-1,-1.08533524E-1,8.8631535E-1,-2.665551E-1,1.1631249E0,-6.5478367E-1,-3.6525053E-1,-1.6845116E-1,4.1513115E-2,-5.386851E-1,-5.994789E-1,-5.908365E-1,-1.4311378E-1,-7.040107E-1,1.1512139E-2,-5.489229E-1,-9.321232E-1,1.7181171E-1,-4.5223215E-1,-7.45645E-1,-1.4486791E-1,8.0338275E-1,1.8152954E-1,-8.467449E-1,-5.763601E-1,9.328562E-1,-2.5994977E-1,-3.287205E-1,1.13622285E-1,-1.6463128E-1,3.4830457E-1,7.2719043E-1,1.0590654E-1,4.372975E-1,2.0529827E-1,-2.0038356E-1,2.2630323E-1,-7.072171E-2,1.7246848E-1,-2.400091E-1,2.9452646E-1,-1.6541544E-2,1.7308739E-1,6.475355E-4,-5.6063633E-2,3.369376E-1,1.6460073E-1,-2.2027396E-1,1.9002935E-1,-3.0273046E-2,9.4681405E-2,-2.2245324E-1,-3.917222E-2,-1.9841968E-1,-1.0706325E-1,-2.710228E-1,3.3548135E-1,-1.2140535E-2,4.9480507E-1,-5.847059E-2,-2.3355435E-1,2.799022E-1,5.8516335E-2,-2.4633045E-1,-3.3768976E-1,-8.232556E-2,4.508515E-1,-1.4195868E-1,-2.544467E-2,-3.3283925E-1,-2.12182E-1,3.6628324E-1,-2.969618E-1,8.3002E-2,6.839711E-2,-2.3103647E-1,-1.2510909E-1,-3.027858E-1],"split_indices":[33,9,1,21,17,13,21,5,13,25,25,21,32,5,5,37,1,25,24,5,33,5,5,21,29,24,29,1,36,0,12,4,0,7,0,21,33,0,0,33,20,33,9,13,13,29,29,21,9,28,5,17,33,0,9,24,27,0,0,0,1,0,0,0,0,0,0,0,0,0,0,0,0,0,0,0,0,0,0,0,0,0,0,0,0,0,0,0,0,0,0,0,0,0,0,0,0,0,0,0,0,0,0,0,0,0,0,0,0],"split_type":[0,0,0,0,0,0,0,0,0,0,0,0,0,0,0,0,0,0,0,0,0,0,0,0,0,0,0,0,0,0,0,0,0,0,0,0,0,0,0,0,0,0,0,0,0,0,0,0,0,0,0,0,0,0,0,0,0,0,0,0,0,0,0,0,0,0,0,0,0,0,0,0,0,0,0,0,0,0,0,0,0,0,0,0,0,0,0,0,0,0,0,0,0,0,0,0,0,0,0,0,0,0,0,0,0,0,0,0,0],"sum_hessian":[9.5463556E2,7.4604065E2,2.0859488E2,1.7970139E2,5.663393E2,1.1201027E2,9.658462E1,2.1404188E1,1.582972E2,1.8552441E2,3.8081488E2,6.793978E1,4.4070488E1,2.2336325E1,7.424829E1,1.4587558E1,6.81663E0,1.4079114E2,1.7506063E1,1.5096298E2,3.4561436E1,1.2611081E2,2.5470407E2,3.4969383E1,3.2970394E1,1.8717138E1,2.535335E1,1.2644838E1,9.691485E0,1.6028633E0,7.264543E1,1.356095E1,1.0266072E0,3.7876182E0,3.0290115E0,7.35973E1,6.719383E1,6.8243423E0,1.0681722E1,4.668368E1,1.042793E2,1.2547617E1,2.201382E1,9.350587E1,3.2604946E1,1.7982756E2,7.48765E1,2.973579E1,5.233593E0,6.8205523E0,2.6149843E1,1.179418E1,6.9229584E0,1.1917428E0,2.4161608E1,9.482308E0,3.1625304E0,3.263877E0,6.427609E0,1.4266831E0,7.121874E1,8.934552E0,4.626398E0,2.6325908E0,1.1550275E0,6.9232475E1,4.364828E0,1.5805939E1,5.1387894E1,6.9212537E0,3.7604682E0,3.3021667E1,1.3662013E1,2.5522705E1,7.875659E1,1.0324406E1,2.2232106E0,1.921536E0,2.0092283E1,4.8669907E1,4.483596E1,7.616888E0,2.4988058E1,1.3302711E2,4.680044E1,2.7827974E1,4.704853E1,5.794819E0,2.394097E1,4.221943E0,1.0116503E0,1.2493697E0,5.5711827E0,8.402717E0,1.7747126E1,6.877208E0,4.916971E0,5.252308E0,1.6706507E0,1.6371559E0,2.2524452E1,1.290757E0,8.191551E0,2.1403842E0,1.0221462E0,1.686927E0,1.5769498E0,5.491408E0,6.572734E1],"tree_param":{"num_deleted":"0","num_feature":"40","num_nodes":"109","size_leaf_vector":"1"}},{"base_weights":[-7.632052E-2,-1.4375471E-2,-5.515209E-1,1.014904E-1,-2.3450595E-1,4.5888036E-1,-6.462141E-1,2.3978251E-1,-1.4445622E-1,2.7311224E-2,-4.3137535E-1,1.1719064E0,-2.718543E-1,4.1534755E-1,-6.929292E-1,3.2679382E-1,-2.0424572E-1,1.7219292E-1,-2.6206604E-1,1.2464486E-1,-6.781664E-1,-2.0553277E-1,-6.966365E-1,-7.536917E-2,5.210411E-1,1.196068E-1,-2.3673053E-1,-4.8521405E-1,-9.90926E-1,5.6431884E-1,1.6292588E-1,-2.7332145E-1,4.140005E-1,-6.1745554E-1,3.3269027E-1,-3.0700989E-2,-5.388426E-1,3.1199327E-1,-2.5577945E-1,2.4669811E-1,-9.5103925E-1,-1.4167689E-2,-6.911725E-1,-1.423688E-1,-8.8264614E-1,-1.3458966E-1,2.065645E-1,2.896986E-1,-6.207195E-1,-1.0139394E0,-5.080226E-2,5.971711E-2,2.3168094E-1,9.8303296E-2,-4.4782862E-2,1.0526726E-1,-1.2333506E-1,1.4843997E-1,-2.501412E-1,1.7728442E-1,-1.1832429E-1,2.1781296E-1,-6.839255E-2,4.6249732E-2,-1.9760196E-1,2.148755E-1,1.952773E-2,2.1058197E-1,-1.2340254E-1,2.7153483E-1,-1.9900818E-1,-2.4165997E-2,-3.0954438E-1,-2.6692876E-1,2.943731E-2,4.4878755E-2,-2.3569222E-1,5.4667827E-2,-2.4870242E-1,1.9179766E-1,-2.770787E-1,3.029052E-1,-9.34212E-2,5.314421E-2,-2.2532506E-1,-4.6625055E-2,-3.1077895E-1],"categories":[],"categories_nodes":[],"categories_segments":[],"categories_sizes":[],"default_left":[0,0,0,0,0,0,0,0,0,0,0,0,0,0,0,0,0,0,0,0,0,0,0,0,0,0,0,0,0,0,0,0,0,0,0,0,0,0,0,0,0,0,0,0,0,0,0,0,0,0,0,0,0,0,0,0,0,0,0,0,0,0,0,0,0,0,0,0,0,0,0,0,0,0,0,0,0,0,0,0,0,0,0,0,0,0,0],"id":7,"left_children":[1,3,5,7,9,11,13,15,17,19,21,23,25,-1,27,29,31,33,35,37,39,41,43,-1,-1,45,-1,47,49,51,53,55,-1,57,59,61,63,65,67,69,71,73,75,77,79,-1,-1,81,83,85,-1,-1,-1,-1,-1,-1,-1,-1,-1,-1,-1,-1,-1,-1,-1,-1,-1,-1,-1,-1,-1,-1,-1,-1,-1,-1,-1,-1,-1,-1,-1,-1,-1,-1,-1,-1,-1],"loss_changes":[2.700442E1,2.0756147E1,1.0419243E1,1.8171638E1,1.4475431E1,5.346816E0,1.0175373E1,1.3268486E1,7.2157226E0,8.419191E0,9.455784E0,4.5144415E0,1.2237815E0,0E0,5.438595E0,1.1043726E1,6.5714493E0,6.890814E0,8.999476E0,7.742043E0,3.987699E0,8.165114E0,7.4280205E0,0E0,0E0,1.6160854E0,0E0,6.3027725E0,5.528259E-1,8.6870575E0,8.829229E0,4.881287E0,0E0,2.6410043E0,8.587367E0,1.1772405E1,5.420141E0,7.188078E0,5.655736E0,3.106308E0,7.387991E-1,6.391813E0,2.0907402E0,4.5199385E0,3.9973755E0,0E0,0E0,4.365611E0,5.3285465E0,5.389557E-1,0E0,0E0,0E0,0E0,0E0,0E0,0E0,0E0,0E0,0E0,0E0,0E0,0E0,0E0,0E0,0E0,0E0,0E0,0E0,0E0,0E0,0E0,0E0,0E0,0E0,0E0,0E0,0E0,0E0,0E0,0E0,0E0,0E0,0E0,0E0,0E0,0E0],"parents":[2147483647,0,0,1,1,2,2,3,3,4,4,5,5,6,6,7,7,8,8,9,9,10,10,11,11,12,12,14,14,15,15,16,16,17,17,18,18,19,19,20,20,21,21,22,22,25,25,27,27,28,28,29,29,30,30,31,31,33,33,34,34,35,35,36,36,37,37,38,38,39,39,40,40,41,41,42,42,43,43,44,44,47,47,48,48,49,49],"right_children":[2,4,6,8,10,12,14,16,18,20,22,24,26,-1,28,30,32,34,36,38,40,42,44,-1,-1,46,-1,48,50,52,54,56,-1,58,60,62,64,66,68,70,72,74,76,78,80,-1,-1,82,84,86,-1,-1,-1,-1,-1,-1,-1,-1,-1,-1,-1,-1,-1,-1,-1,-1,-1,-1,-1,-1,-1,-1,-1,-1,-1,-1,-1,-1,-1,-1,-1,-1,-1,-1,-1,-1,-1],"split_conditions":[4.2009187E-1,-1.0785062E-1,-8.860875E-1,5.95849E-2,-4.3087927E-1,-6.398468E-1,-6.546505E-1,3.941415E-1,-6.980078E-1,5.454488E-1,-4.43617E-1,-6.534943E-1,-2.813074E-1,4.1534755E-1,-6.520728E-2,-3.9431244E-1,-1.2361623E-1,-5.763601E-1,-2.7761558E-1,-3.6773108E-2,-5.727941E-1,-2.1402456E-1,-7.1120197E-1,-7.536917E-2,5.210411E-1,-7.496368E-2,-2.3673053E-1,-6.980078E-1,2.4345002E0,-4.8079902E-1,-1.7122404E-1,-8.5599464E-1,4.140005E-1,-6.780511E-1,1.4678417E-1,-1.0354726E0,-5.073587E-1,-4.9074858E-1,-6.625667E-1,1.1946107E0,-1.117939E0,-5.848746E-1,-4.903898E-1,-2.2534968E-2,-1.0549752E0,-1.3458966E-1,2.065645E-1,-9.153184E-1,-4.8263463E-1,-6.4080316E-1,-5.080226E-2,5.971711E-2,2.3168094E-1,9.8303296E-2,-4.4782862E-2,1.0526726E-1,-1.2333506E-1,1.4843997E-1,-2.501412E-1,1.7728442E-1,-1.1832429E-1,2.1781296E-1,-6.839255E-2,4.6249732E-2,-1.9760196E-1,2.148755E-1,1.952773E-2,2.1058197E-1,-1.2340254E-1,2.7153483E-1,-1.9900818E-1,-2.4165997E-2,-3.0954438E-1,-2.6692876E-1,2.943731E-2,4.4878755E-2,-2.3569222E-1,5.4667827E-2,-2.4870242E-1,1.9179766E-1,-2.770787E-1,3.029052E-1,-9.34212E-2,5.314421E-2,-2.2532506E-1,-4.6625055E-2,-3.1077895E-1],"split_indices":[17,9,13,33,33,9,20,25,5,13,21,9,29,0,29,5,9,24,29,5,5,20,1,0,0,5,0,5,36,28,21,33,0,28,20,36,0,25,32,13,33,4,16,29,29,0,0,1,12,24,0,0,0,0,0,0,0,0,0,0,0,0,0,0,0,0,0,0,0,0,0,0,0,0,0,0,0,0,0,0,0,0,0,0,0,0,0],"split_type":[0,0,0,0,0,0,0,0,0,0,0,0,0,0,0,0,0,0,0,0,0,0,0,0,0,0,0,0,0,0,0,0,0,0,0,0,0,0,0,0,0,0,0,0,0,0,0,0,0,0,0,0,0,0,0,0,0,0,0,0,0,0,0,0,0,0,0,0,0,0,0,0,0,0,0,0,0,0,0,0,0,0,0,0,0,0,0],"sum_hessian":[9.16654E2,8.1185443E2,1.0479957E2,5.322455E2,2.7960895E2,8.650503E0,9.614906E1,3.407E2,1.9154547E2,1.2037851E2,1.5923044E2,4.072733E0,4.5777707E0,1.5181506E0,9.463091E1,2.850968E2,5.560324E1,5.175034E1,1.3979514E2,1.06507195E2,1.3871312E1,8.6964195E1,7.2266235E1,1.3150388E0,2.757694E0,3.0433087E0,1.5344621E0,5.7311115E1,3.7319794E1,1.15392586E2,1.6970421E2,5.4073044E1,1.5301962E0,8.260662E0,4.3489674E1,7.674927E1,6.304587E1,7.148346E1,3.502374E1,3.182066E0,1.0689246E1,6.3120785E1,2.384341E1,1.8601936E1,5.36643E1,1.6283907E0,1.4149181E0,8.360746E0,4.895037E1,3.6075172E1,1.2446232E0,4.257234E1,7.2820244E1,1.1105169E2,5.8652515E1,9.498489E0,4.4574554E1,1.1355757E0,7.125087E0,3.222946E1,1.1260214E1,1.5316141E1,6.143313E1,9.252122E0,5.379375E1,2.6383678E1,4.5099777E1,4.403196E0,3.0620543E1,1.8494439E0,1.3326222E0,1.0772604E0,9.611986E0,6.3878694E0,5.6732918E1,2.3494775E0,2.1493933E1,1.3129732E1,5.4722047E0,1.0231797E0,5.264112E1,3.494911E0,4.865835E0,6.8243628E0,4.2126007E1,1.1024435E0,3.497273E1],"tree_param":{"num_deleted":"0","num_feature":"40","num_nodes":"87","size_leaf_vector":"1"}},{"base_weights":[-6.28823E-2,-1.1547321E-2,-4.9105188E-1,9.222671E-2,-2.0977938E-1,1.7378694E-1,-6.2561834E-1,1.1821318E-1,-8.4637463E-1,-4.591365E-2,-6.815533E-1,5.8781147E-1,-2.6280987E-1,-2.2532766E-1,-7.958294E-1,1.7818831E-1,-2.9902986E-1,-6.851574E-2,-1.000889E0,1.6525073E-1,-2.7325293E-1,-1.471309E-1,-8.178088E-1,1.0208232E0,-6.819125E-1,1.9921243E-1,-6.9702554E-1,1.682774E-3,-9.184721E-1,2.6131687E-1,-1.416218E-1,-3.3504236E-2,-6.6856277E-1,2.0450729E-1,-2.0096187E-1,-2.2646377E-2,-3.239501E-1,2.6240784E-1,-7.9938823E-1,1.8689348E-1,-4.8042756E-1,8.207204E-1,-4.7717437E-1,-6.0639703E-1,-1.0648019E0,1.6077942E0,7.597733E-2,-2.6115078E-1,-2.4201825E-2,5.771924E-1,-7.7842593E-1,-9.0446585E-1,2.5547337E-2,7.377904E-1,-7.2834027E-1,-1.1079027E-1,-9.822994E-1,1.6106053E-1,4.3418963E-2,3.0545982E-2,-2.004526E-1,-6.1404202E-2,1.8388827E-1,-9.635091E-3,-2.748866E-1,2.424499E-1,2.8762722E-2,-2.7730042E-1,-1.6718814E-2,-2.0804869E-1,9.076148E-2,-9.863917E-2,-2.9341334E-1,-6.8028555E-3,4.0085852E-1,1.6583571E-1,-2.2911768E-1,1.1060329E-1,-2.2874759E-1,-9.094685E-2,-3.266226E-1,5.477539E-1,7.752265E-2,2.4399261E-1,-2.4549301E-1,2.5936902E-1,-1.0760618E-1,-2.8068665E-1,-4.002557E-2,-4.326472E-2,-2.9649958E-1,2.446091E-1,-1.9251575E-1,3.518478E-1,-4.975289E-2,-1.561744E-2,-2.6941025E-1,2.3358655E-1,-2.2969067E-1,-3.0127937E-1,-6.3769678E-3],"categories":[],"categories_nodes":[],"categories_segments":[],"categories_sizes":[],"default_left":[0,0,0,0,0,0,0,0,0,0,0,0,0,0,0,0,0,0,0,0,0,0,0,0,0,0,0,0,0,0,0,0,0,0,0,0,0,0,0,0,0,0,0,0,0,0,0,0,0,0,0,0,0,0,0,0,0,0,0,0,0,0,0,0,0,0,0,0,0,0,0,0,0,0,0,0,0,0,0,0,0,0,0,0,0,0,0,0,0,0,0,0,0,0,0,0,0,0,0,0,0],"id":8,"left_children":[1,3,5,7,9,11,13,15,17,19,21,23,-1,25,27,29,31,33,35,37,39,41,43,45,47,49,51,53,55,57,59,61,63,-1,-1,-1,-1,65,67,69,71,73,75,77,79,81,83,-1,-1,85,87,89,91,93,95,97,99,-1,-1,-1,-1,-1,-1,-1,-1,-1,-1,-1,-1,-1,-1,-1,-1,-1,-1,-1,-1,-1,-1,-1,-1,-1,-1,-1,-1,-1,-1,-1,-1,-1,-1,-1,-1,-1,-1,-1,-1,-1,-1,-1,-1],"loss_changes":[1.954708E1,1.6380878E1,8.626823E0,1.2850502E1,2.1120216E1,7.8213687E0,5.2306213E0,1.2804312E1,1.6388206E0,9.845121E0,5.010536E0,7.6533017E0,0E0,5.162186E0,5.4120407E0,1.1897696E1,6.2976956E0,2.0030217E0,7.7894115E-1,1.0187217E1,9.497221E0,5.35382E0,2.2746658E0,5.3331156E0,3.626269E-1,5.6153092E0,1.8374867E0,5.035777E0,2.3628807E0,1.130917E1,1.194938E1,4.389517E0,4.2083464E0,0E0,0E0,0E0,0E0,8.781214E0,8.765812E-1,3.402291E0,4.833849E0,1.90751E0,4.027699E0,5.2211895E0,1.1612511E-1,1.2988005E0,3.8429842E0,0E0,0E0,3.1760526E0,3.1356788E-1,4.588561E-1,2.458703E0,2.0283551E0,4.9333024E-1,3.2977684E0,9.139519E-1,0E0,0E0,0E0,0E0,0E0,0E0,0E0,0E0,0E0,0E0,0E0,0E0,0E0,0E0,0E0,0E0,0E0,0E0,0E0,0E0,0E0,0E0,0E0,0E0,0E0,0E0,0E0,0E0,0E0,0E0,0E0,0E0,0E0,0E0,0E0,0E0,0E0,0E0,0E0,0E0,0E0,0E0,0E0,0E0],"parents":[2147483647,0,0,1,1,2,2,3,3,4,4,5,5,6,6,7,7,8,8,9,9,10,10,11,11,13,13,14,14,15,15,16,16,17,17,18,18,19,19,20,20,21,21,22,22,23,23,24,24,25,25,26,26,27,27,28,28,29,29,30,30,31,31,32,32,37,37,38,38,39,39,40,40,41,41,42,42,43,43,44,44,45,45,46,46,49,49,50,50,51,51,52,52,53,53,54,54,55,55,56,56],"right_children":[2,4,6,8,10,12,14,16,18,20,22,24,-1,26,28,30,32,34,36,38,40,42,44,46,48,50,52,54,56,58,60,62,64,-1,-1,-1,-1,66,68,70,72,74,76,78,80,82,84,-1,-1,86,88,90,92,94,96,98,100,-1,-1,-1,-1,-1,-1,-1,-1,-1,-1,-1,-1,-1,-1,-1,-1,-1,-1,-1,-1,-1,-1,-1,-1,-1,-1,-1,-1,-1,-1,-1,-1,-1,-1,-1,-1,-1,-1,-1,-1,-1,-1,-1,-1],"split_conditions":[4.835098E-1,-4.845755E-2,-8.9213896E-1,1.1201086E0,-1.13776736E-1,-1.3254328E-1,-5.5849105E-1,4.245317E-1,-8.3920985E-1,-4.5912337E-1,-7.7623993E-1,9.3623966E-1,-2.6280987E-1,-2.6832643E-1,-8.4637713E-1,1.5467389E-1,-1.6106598E-1,-4.311496E-1,-9.153184E-1,3.7392002E-1,-7.8223306E-1,-4.8548955E-1,-2.4516612E-1,2.7301708E-1,-3.4090212E-1,1.2481748E0,1.3140513E0,-6.6338325E-1,-7.2878706E-1,-4.725623E-1,-1.7733033E-1,8.5927415E-1,-6.972935E-1,2.0450729E-1,-2.0096187E-1,-2.2646377E-2,-3.239501E-1,-8.507435E-1,1.0363914E0,-5.898397E-1,6.180056E-1,-2.1608393E-1,-5.1217014E-1,-7.292354E-1,-9.415962E-1,-1.9811428E-1,-7.361871E-1,-2.6115078E-1,-2.4201825E-2,-1.2400847E-1,-4.4486365E-1,-7.7576554E-1,-2.4896553E-1,-2.3223236E-1,-7.809746E-1,-3.1635952E-1,1.0699298E1,1.6106053E-1,4.3418963E-2,3.0545982E-2,-2.004526E-1,-6.1404202E-2,1.8388827E-1,-9.635091E-3,-2.748866E-1,2.424499E-1,2.8762722E-2,-2.7730042E-1,-1.6718814E-2,-2.0804869E-1,9.076148E-2,-9.863917E-2,-2.9341334E-1,-6.8028555E-3,4.0085852E-1,1.6583571E-1,-2.2911768E-1,1.1060329E-1,-2.2874759E-1,-9.094685E-2,-3.266226E-1,5.477539E-1,7.752265E-2,2.4399261E-1,-2.4549301E-1,2.5936902E-1,-1.0760618E-1,-2.8068665E-1,-4.002557E-2,-4.326472E-2,-2.9649958E-1,2.446091E-1,-1.9251575E-1,3.518478E-1,-4.975289E-2,-1.561744E-2,-2.6941025E-1,2.3358655E-1,-2.2969067E-1,-3.0127937E-1,-6.3769678E-3],"split_indices":[13,1,33,21,25,5,1,29,5,29,33,13,0,17,25,9,21,25,1,9,17,5,21,36,8,13,13,17,5,33,17,3,17,0,0,0,0,33,37,32,1,4,9,29,9,1,29,0,0,33,28,25,32,16,21,17,14,0,0,0,0,0,0,0,0,0,0,0,0,0,0,0,0,0,0,0,0,0,0,0,0,0,0,0,0,0,0,0,0,0,0,0,0,0,0,0,0,0,0,0,0],"split_type":[0,0,0,0,0,0,0,0,0,0,0,0,0,0,0,0,0,0,0,0,0,0,0,0,0,0,0,0,0,0,0,0,0,0,0,0,0,0,0,0,0,0,0,0,0,0,0,0,0,0,0,0,0,0,0,0,0,0,0,0,0,0,0,0,0,0,0,0,0,0,0,0,0,0,0,0,0,0,0,0,0,0,0,0,0,0,0,0,0,0,0,0,0,0,0,0,0,0,0,0,0],"sum_hessian":[8.8856714E2,7.943556E2,9.421152E1,5.2175354E2,2.7260202E2,1.5809864E1,7.840165E1,5.085478E2,1.32057905E1,2.031406E2,6.946143E1,1.16539135E1,4.15595E0,2.4084707E1,5.4316944E1,4.4513617E2,6.34116E1,2.4276898E0,1.0778101E1,1.0545847E2,9.768213E1,1.453438E1,5.4927055E1,8.836459E0,2.8174546E0,1.2980024E1,1.1104683E1,7.371082E0,4.694586E1,3.534472E2,9.168899E1,3.7533092E1,2.5878508E1,1.0207249E0,1.4069649E0,1.000957E0,9.7771435E0,9.647011E1,8.988362E0,3.035651E1,6.7325615E1,3.3179116E0,1.1216468E1,3.1456896E1,2.347016E1,5.0176654E0,3.818794E0,1.8038098E0,1.0136447E0,9.656269E0,3.3237555E0,8.432192E0,2.672491E0,3.6649477E0,3.7061343E0,3.6385665E0,4.3307297E1,1.04011894E2,2.494353E2,6.3252197E1,2.8436789E1,3.0215708E1,7.317383E0,7.567104E0,1.8311405E1,2.1653713E1,7.481639E1,7.4874043E0,1.5009578E0,2.9443996E0,2.7412111E1,5.287474E1,1.4450877E1,1.6212704E0,1.6966412E0,2.2391436E0,8.9773245E0,4.1529403E0,2.7303957E1,1.1316061E0,2.2338552E1,4.015665E0,1.0020001E0,2.1427052E0,1.6760888E0,7.446081E0,2.2101884E0,2.3101766E0,1.0135788E0,1.1079707E0,7.3242216E0,1.1222192E0,1.5502717E0,2.2728372E0,1.3921106E0,1.0055373E0,2.700597E0,1.4627883E0,2.1757782E0,4.2295635E1,1.01166E0],"tree_param":{"num_deleted":"0","num_feature":"40","num_nodes":"101","size_leaf_vector":"1"}},{"base_weights":[-5.4920893E-2,7.7215955E-3,-3.9934245E-1,8.111495E-2,-2.5915632E-1,-2.687194E-1,-9.389377E-1,1.1148216E-1,-4.74218E-1,8.14171E-1,-3.254419E-1,7.4015313E-1,-3.5722202E-1,-1.1943712E-2,-9.749689E-1,3.7421966E-1,5.6317948E-2,2.86814E-1,-7.689001E-1,1.1284661E0,-2.0050697E-1,7.12901E-1,-3.7099057E-1,4.2868167E-1,-4.7198355E-1,2.524204E-1,-4.770402E-1,-3.1248575E-1,-3.1160778E-1,8.527291E-2,7.5368166E-1,1.0145958E-1,-4.2395627E-1,1.0302807E0,-4.216217E-1,-9.4795394E-1,-1.3022122E-1,1.6520498E0,1.5490627E-2,1.0794014E0,-1.9146684E-1,-1.5539578E-1,-5.66486E-1,-2.7610672E-1,6.802877E-2,6.894206E-1,-2.7569798E-1,-3.3272675E-1,-9.1990787E-1,-2.2458856E-1,1.1145313E-1,6.2676825E-2,-1.8033975E-1,3.6050075E-1,6.0750883E-2,2.4437577E-1,1.8548956E-2,-1.7797662E-1,1.1380505E-1,4.586313E-1,3.977072E-2,9.95015E-2,-2.0628658E-1,1.737607E-2,-3.1059635E-1,1.1334598E-1,-2.2970435E-1,4.863019E-2,5.892588E-1,-2.1357714E-1,2.4433143E-1,-8.889821E-3,4.2291486E-1,1.341544E-1,-8.158605E-2,8.2321145E-2,-2.0391992E-1,3.62379E-1,-2.3789899E-1,1.843525E-1,-1.7417061E-1,-8.992634E-3,-1.9637582E-1,4.4370234E-2,-2.9642087E-1],"categories":[],"categories_nodes":[],"categories_segments":[],"categories_sizes":[],"default_left":[0,0,0,0,0,0,0,0,0,0,0,0,0,0,0,0,0,0,0,0,0,0,0,0,0,0,0,0,0,0,0,0,0,0,0,0,0,0,0,0,0,0,0,0,0,0,0,0,0,0,0,0,0,0,0,0,0,0,0,0,0,0,0,0,0,0,0,0,0,0,0,0,0,0,0,0,0,0,0,0,0,0,0,0,0],"id":9,"left_children":[1,3,5,7,9,11,13,15,17,19,21,23,25,-1,27,29,31,33,35,37,-1,39,41,-1,43,45,47,49,-1,51,53,55,57,59,61,63,65,67,69,71,-1,73,75,-1,-1,77,79,81,83,-1,-1,-1,-1,-1,-1,-1,-1,-1,-1,-1,-1,-1,-1,-1,-1,-1,-1,-1,-1,-1,-1,-1,-1,-1,-1,-1,-1,-1,-1,-1,-1,-1,-1,-1,-1],"loss_changes":[1.8708801E1,1.4408752E1,9.152948E0,9.781287E0,1.1554048E1,9.981885E0,7.907257E-1,7.918257E0,6.9708624E0,5.1876864E0,7.3663054E0,8.274433E0,7.4783907E0,0E0,7.1294785E-1,1.0338404E1,9.883762E0,5.243246E0,2.3889942E0,4.765971E0,0E0,3.983123E0,6.002632E0,0E0,1.4775798E0,4.159511E0,5.0964375E0,1.3481576E0,0E0,4.792797E0,9.85244E0,1.1698041E1,5.5549245E0,1.9208751E0,1.3070596E0,1.5539398E0,2.216601E0,2.277894E0,2.6953175E0,2.0948982E0,0E0,5.045011E0,7.367523E0,0E0,0E0,8.411715E0,2.6642373E0,6.3455777E0,1.6170063E0,0E0,0E0,0E0,0E0,0E0,0E0,0E0,0E0,0E0,0E0,0E0,0E0,0E0,0E0,0E0,0E0,0E0,0E0,0E0,0E0,0E0,0E0,0E0,0E0,0E0,0E0,0E0,0E0,0E0,0E0,0E0,0E0,0E0,0E0,0E0,0E0],"parents":[2147483647,0,0,1,1,2,2,3,3,4,4,5,5,6,6,7,7,8,8,9,9,10,10,11,11,12,12,14,14,15,15,16,16,17,17,18,18,19,19,21,21,22,22,24,24,25,25,26,26,27,27,29,29,30,30,31,31,32,32,33,33,34,34,35,35,36,36,37,37,38,38,39,39,41,41,42,42,45,45,46,46,47,47,48,48],"right_children":[2,4,6,8,10,12,14,16,18,20,22,24,26,-1,28,30,32,34,36,38,-1,40,42,-1,44,46,48,50,-1,52,54,56,58,60,62,64,66,68,70,72,-1,74,76,-1,-1,78,80,82,84,-1,-1,-1,-1,-1,-1,-1,-1,-1,-1,-1,-1,-1,-1,-1,-1,-1,-1,-1,-1,-1,-1,-1,-1,-1,-1,-1,-1,-1,-1,-1,-1,-1,-1,-1,-1],"split_conditions":[2.5070083E-1,5.1268373E-2,2.7611662E-2,8.0338275E-1,-8.4256417E-1,-1.0981426E0,-9.2276525E-1,-7.193101E-1,-8.8297385E-1,9.698406E-1,-6.686026E-1,-4.733627E-1,-8.195301E-1,-1.1943712E-2,-8.91601E-1,-3.7592116E-1,5.3741485E-1,-6.672949E-1,8.8631535E-1,-2.875245E-1,-2.0050697E-1,-4.334349E-1,-3.6469838E-1,4.2868167E-1,1.3343899E0,-7.809746E-1,-2.3326749E-1,3.2237956E-1,-3.1160778E-1,-4.1211963E-1,-1.8824811E-1,-8.724856E-1,9.698406E-1,-5.2723503E-1,-7.1804917E-1,-8.014745E-1,-5.6331396E-1,-5.362728E-1,-2.5732008E-1,-6.8729883E-1,-1.9146684E-1,-1.1524718E0,-9.153184E-1,-2.7610672E-1,6.802877E-2,2.7942395E0,-9.6197325E-1,-4.1114998E-1,-9.597717E-1,-2.2458856E-1,1.1145313E-1,6.2676825E-2,-1.8033975E-1,3.6050075E-1,6.0750883E-2,2.4437577E-1,1.8548956E-2,-1.7797662E-1,1.1380505E-1,4.586313E-1,3.977072E-2,9.95015E-2,-2.0628658E-1,1.737607E-2,-3.1059635E-1,1.1334598E-1,-2.2970435E-1,4.863019E-2,5.892588E-1,-2.1357714E-1,2.4433143E-1,-8.889821E-3,4.2291486E-1,1.341544E-1,-8.158605E-2,8.2321145E-2,-2.0391992E-1,3.62379E-1,-2.3789899E-1,1.843525E-1,-1.7417061E-1,-8.992634E-3,-1.9637582E-1,4.4370234E-2,-2.9642087E-1],"split_indices":[5,17,21,33,21,33,25,9,36,19,0,13,13,0,13,4,29,21,7,0,0,1,25,0,5,21,25,21,0,4,0,5,19,13,5,36,21,32,0,24,0,36,1,0,0,28,36,33,1,0,0,0,0,0,0,0,0,0,0,0,0,0,0,0,0,0,0,0,0,0,0,0,0,0,0,0,0,0,0,0,0,0,0,0,0],"split_type":[0,0,0,0,0,0,0,0,0,0,0,0,0,0,0,0,0,0,0,0,0,0,0,0,0,0,0,0,0,0,0,0,0,0,0,0,0,0,0,0,0,0,0,0,0,0,0,0,0,0,0,0,0,0,0,0,0,0,0,0,0,0,0,0,0,0,0,0,0,0,0,0,0,0,0,0,0,0,0,0,0,0,0,0,0],"sum_hessian":[8.6599176E2,7.335527E2,1.3243906E2,5.758781E2,1.5767459E2,1.0783324E2,2.460583E1,5.4677795E2,2.910014E1,8.51488E0,1.4915971E2,8.102855E0,9.973038E1,1.0291551E0,2.3576674E1,9.387656E1,4.529014E2,8.130192E0,2.096995E1,7.22253E0,1.2923499E0,5.65248E0,1.4350723E2,5.0527916E0,3.0500631E0,1.6199516E1,8.353086E1,2.586868E0,2.0989805E1,5.39899E1,3.9886658E1,4.147109E2,3.81905E1,3.7453432E0,4.384848E0,1.600008E1,4.9698696E0,4.582434E0,2.640096E0,4.6045713E0,1.047909E0,6.909893E1,7.4408295E1,1.6647022E0,1.3853611E0,8.697336E0,7.50218E0,6.432208E1,1.9208778E1,1.5219322E0,1.0649358E0,4.6338127E1,7.6517725E0,2.1351992E1,1.8534666E1,2.0803452E1,3.9390747E2,3.1758736E1,6.431762E0,1.9561492E0,1.7891939E0,1.0798644E0,3.3049839E0,1.3055929E0,1.4694487E1,2.987136E0,1.9827338E0,1.0569007E0,3.5255334E0,1.4389259E0,1.2011701E0,1.2656E0,3.3389714E0,1.0739836E1,5.8359093E1,8.662662E0,6.5745636E1,6.580735E0,2.116601E0,1.654753E0,5.8474274E0,3.370819E1,3.0613892E1,1.0823907E0,1.8126387E1],"tree_param":{"num_deleted":"0","num_feature":"40","num_nodes":"85","size_leaf_vector":"1"}},{"base_weights":[-4.4442154E-2,-2.49807E-2,-9.010706E-1,4.6172034E-2,-2.3952614E-1,-1.7287186E-1,-9.8869926E-1,1.5016499E-1,-1.2156285E-1,-9.812985E-3,-4.3458864E-1,1.2996553E-1,-2.0352018E-1,-5.7205066E-2,-3.0946514E-1,-2.4813597E-1,1.9966632E-1,4.172911E-3,-3.8815123E-1,7.51113E-2,-7.4175256E-1,2.2298305E-1,-5.306166E-1,-4.8478046E-1,5.222682E-1,2.772963E-1,-1.618437E-1,1.8114342E-1,-2.4968892E-1,3.7552632E-4,-6.1796916E-1,3.2190117E-1,-2.6195207E-1,-1.5504676E-2,-8.8099855E-1,7.4036443E-1,-1.5631518E-1,-2.807956E-1,-7.5438875E-1,-1.7960706E-1,1.7988616E-1,2.9071525E-1,-2.1406801E-1,1.0318875E-1,-3.65301E-2,8.888282E-2,-1.22869104E-1,3.2314056E-1,2.9879501E-2,-1.7437235E-3,-1.7327817E-1,-1.4305244E-1,1.2239035E-1,-1.1692181E-1,-3.0324203E-1,-2.3358126E-1,1.3195221E-1,1.3247234E-1,-1.5738134E-1,-2.974591E-1,-1.3024342E-2,3.195413E-1,3.0548766E-4,1.5703106E-1,-2.8416467E-1,4.4745672E-2,-1.6328561E-1,3.4022655E-2,-2.6060373E-1],"categories":[],"categories_nodes":[],"categories_segments":[],"categories_sizes":[],"default_left":[0,0,0,0,0,0,0,0,0,0,0,0,0,0,0,0,0,0,0,0,0,0,0,0,0,0,0,0,0,0,0,0,0,0,0,0,0,0,0,0,0,0,0,0,0,0,0,0,0,0,0,0,0,0,0,0,0,0,0,0,0,0,0,0,0,0,0,0,0],"id":10,"left_children":[1,3,5,7,9,11,13,15,17,19,21,-1,-1,-1,-1,23,25,27,29,31,33,35,37,39,41,43,45,47,49,51,53,55,57,-1,59,61,63,65,67,-1,-1,-1,-1,-1,-1,-1,-1,-1,-1,-1,-1,-1,-1,-1,-1,-1,-1,-1,-1,-1,-1,-1,-1,-1,-1,-1,-1,-1,-1],"loss_changes":[1.4047236E1,1.2623933E1,1.0235634E0,1.0855746E1,9.223319E0,1.2812647E0,3.6741447E-1,7.6200542E0,7.9903817E0,5.99758E0,7.149122E0,0E0,0E0,0E0,0E0,8.0727215E0,9.644983E0,7.365363E0,6.821395E0,7.2847805E0,9.182391E-1,3.0381856E0,5.2359867E0,4.476126E0,6.5222864E0,7.5435696E0,7.0556664E0,6.9498043E0,5.382451E0,5.911594E0,3.9096794E0,6.886747E0,7.094464E0,0E0,7.2383976E-1,1.5533869E0,5.5592794E0,5.477997E0,5.138172E0,0E0,0E0,0E0,0E0,0E0,0E0,0E0,0E0,0E0,0E0,0E0,0E0,0E0,0E0,0E0,0E0,0E0,0E0,0E0,0E0,0E0,0E0,0E0,0E0,0E0,0E0,0E0,0E0,0E0,0E0],"parents":[2147483647,0,0,1,1,2,2,3,3,4,4,5,5,6,6,7,7,8,8,9,9,10,10,15,15,16,16,17,17,18,18,19,19,20,20,21,21,22,22,23,23,24,24,25,25,26,26,27,27,28,28,29,29,30,30,31,31,32,32,34,34,35,35,36,36,37,37,38,38],"right_children":[2,4,6,8,10,12,14,16,18,20,22,-1,-1,-1,-1,24,26,28,30,32,34,36,38,40,42,44,46,48,50,52,54,56,58,-1,60,62,64,66,68,-1,-1,-1,-1,-1,-1,-1,-1,-1,-1,-1,-1,-1,-1,-1,-1,-1,-1,-1,-1,-1,-1,-1,-1,-1,-1,-1,-1,-1,-1],"split_conditions":[1.1270988E0,1.21844E-2,-8.614491E-1,-1.1625494E-1,-4.9611294E-1,-8.014745E-1,-1.0095037E0,-5.988671E-1,-1.6281484E-1,1.3537773E-1,-6.4494973E-1,1.2996553E-1,-2.0352018E-1,-5.7205066E-2,-3.0946514E-1,-3.0631874E-2,1.5452898E-1,-4.091252E-1,-4.57158E-1,-2.0811073E-1,-9.0175885E-1,-6.5317976E-1,-2.5102398E-1,9.328562E-1,-5.820743E-1,2.1594122E-1,-5.915957E-1,-1.007935E0,-2.4324419E-1,-4.5223215E-1,-5.601765E-2,1.01074554E-1,-4.374973E-1,-1.5504676E-2,2.7339268E-1,-4.5093823E-2,-4.415915E-1,-4.6632278E-1,-9.374359E-1,-1.7960706E-1,1.7988616E-1,2.9071525E-1,-2.1406801E-1,1.0318875E-1,-3.65301E-2,8.888282E-2,-1.22869104E-1,3.2314056E-1,2.9879501E-2,-1.7437235E-3,-1.7327817E-1,-1.4305244E-1,1.2239035E-1,-1.1692181E-1,-3.0324203E-1,-2.3358126E-1,1.3195221E-1,1.3247234E-1,-1.5738134E-1,-2.974591E-1,-1.3024342E-2,3.195413E-1,3.0548766E-4,1.5703106E-1,-2.8416467E-1,4.4745672E-2,-1.6328561E-1,3.4022655E-2,-2.6060373E-1],"split_indices":[33,21,9,1,13,36,1,4,9,5,32,0,0,0,0,17,17,25,16,33,25,29,17,27,20,5,33,29,33,28,13,21,25,0,33,25,9,33,1,0,0,0,0,0,0,0,0,0,0,0,0,0,0,0,0,0,0,0,0,0,0,0,0,0,0,0,0,0,0],"split_type":[0,0,0,0,0,0,0,0,0,0,0,0,0,0,0,0,0,0,0,0,0,0,0,0,0,0,0,0,0,0,0,0,0,0,0,0,0,0,0,0,0,0,0,0,0,0,0,0,0,0,0,0,0,0,0,0,0,0,0,0,0,0,0,0,0,0,0,0,0],"sum_hessian":[8.4295325E2,8.252342E2,1.7719059E1,6.203001E2,2.049341E2,2.2225258E0,1.5496533E1,3.8296973E2,2.3733038E2,9.459072E1,1.10343376E2,1.0757831E0,1.1467427E0,1.0674449E0,1.4429089E1,4.1890976E1,3.4107877E2,1.6193736E2,7.539302E1,8.556079E1,9.029927E0,1.3892112E1,9.645126E1,3.233072E1,9.560258E0,2.8097556E2,6.0103203E1,9.558808E1,6.634929E1,2.8392107E1,4.700091E1,4.9420933E1,3.6139862E1,1.7463899E0,7.283537E0,5.4737353E0,8.418377E0,4.6638504E1,4.9812763E1,2.9662735E1,2.667984E0,7.1802783E0,2.3799798E0,2.4087401E2,4.0101547E1,2.1024897E1,3.9078304E1,6.955388E0,8.863269E1,3.8633602E1,2.7715687E1,1.3000717E1,1.539139E1,3.0989075E1,1.6011839E1,4.2414846E0,4.5179447E1,9.639311E0,2.6500551E1,6.272049E0,1.0114882E0,3.4969707E0,1.9767649E0,4.7091756E0,3.7092006E0,1.7886404E1,2.8752102E1,5.797849E0,4.401491E1],"tree_param":{"num_deleted":"0","num_feature":"40","num_nodes":"69","size_leaf_vector":"1"}},{"base_weights":[-3.869513E-2,7.7929194E-3,-3.3466995E-1,1.1652205E-1,-1.2376002E-1,-3.6593653E-2,-4.9119082E-1,1.5014286E-1,-8.6813444E-1,-6.909696E-1,-7.4243255E-2,-3.4813187E-1,5.1044774E-1,-2.9648268E-1,-7.8042114E-1,3.3676392E-1,-1.0008101E-2,-1.0096514E0,2.7012553E-2,-1.2278471E0,-2.3914647E-1,-4.12456E-2,-8.1438E-1,2.1478471E-1,-6.2252134E-1,8.427427E-1,-6.4710516E-1,-4.869051E-3,-6.0094756E-1,2.1158919E-2,-8.986536E-1,3.9309105E-1,-6.1879486E-1,1.49019E-1,-2.2700952E-1,-6.150716E-2,-3.4619135E-1,-3.9349833E-1,-6.646083E-2,9.765539E-1,-6.073357E-1,1.7477362E-1,-1.438045E-1,-9.103123E-1,4.3177567E-2,7.872492E-1,-6.267289E-1,-1.3749167E-2,-7.965038E-1,1.392726E0,2.7153364E-1,-2.9011795E-1,7.8064115E-3,-6.6877234E-1,5.642415E-1,-7.7115345E-1,1.5020208E-1,-2.2036943E-1,2.2481139E-1,8.5042626E-2,-9.632653E-1,1.5816262E-1,2.4826521E-2,9.128275E-2,-2.5849557E-1,2.1671545E-2,2.9822353E-1,2.1115912E-2,-1.7663534E-1,4.0764368E-1,1.17169265E-2,3.4460017E-1,-2.6334438E-1,9.6313596E-2,-1.0764057E-1,4.0785372E-2,-8.2991764E-2,-2.913757E-1,-5.588068E-2,3.0732906E-1,-5.4707315E-2,-2.595188E-1,2.2502726E-2,1.5729713E-1,-2.1391015E-1,-2.763594E-1,2.387873E-2,-2.550544E-2,5.336602E-1,2.5982872E-1,-1.5369125E-1,-3.5161245E-1,1.4294083E-1,3.4473422E-1,-4.7052927E-2,-1.0457013E-1,-3.1153715E-1,-1.5767302E-1,4.0594104E-1,-2.9963645E-1,-5.6632083E-2],"categories":[],"categories_nodes":[],"categories_segments":[],"categories_sizes":[],"default_left":[0,0,0,0,0,0,0,0,0,0,0,0,0,0,0,0,0,0,0,0,0,0,0,0,0,0,0,0,0,0,0,0,0,0,0,0,0,0,0,0,0,0,0,0,0,0,0,0,0,0,0,0,0,0,0,0,0,0,0,0,0,0,0,0,0,0,0,0,0,0,0,0,0,0,0,0,0,0,0,0,0,0,0,0,0,0,0,0,0,0,0,0,0,0,0,0,0,0,0,0,0],"id":11,"left_children":[1,3,5,7,9,11,13,15,17,19,21,23,25,27,29,31,33,35,-1,37,39,41,43,45,47,49,51,53,55,57,59,61,63,65,67,-1,-1,-1,-1,69,71,73,75,77,-1,79,81,83,85,87,89,-1,-1,91,93,95,97,-1,-1,-1,99,-1,-1,-1,-1,-1,-1,-1,-1,-1,-1,-1,-1,-1,-1,-1,-1,-1,-1,-1,-1,-1,-1,-1,-1,-1,-1,-1,-1,-1,-1,-1,-1,-1,-1,-1,-1,-1,-1,-1,-1],"loss_changes":[1.1363938E1,1.0235933E1,5.212594E0,1.3099518E1,9.044481E0,6.9403353E0,3.9038696E0,1.1350983E1,1.8648462E0,5.98452E0,7.2680554E0,4.1306677E0,6.23965E0,4.0367365E0,2.76091E0,9.682684E0,7.1185665E0,1.0965834E0,0E0,6.8658257E-1,7.4396353E0,6.3893332E0,1.2991781E0,4.936733E0,1.8588476E0,3.3717098E0,8.5810995E-1,9.539094E0,2.9605923E0,3.134696E0,2.200529E0,6.874937E0,2.537747E0,7.654593E0,9.42552E0,0E0,0E0,0E0,0E0,1.3585701E0,6.8772964E0,7.3680034E0,7.2964377E0,3.34754E-1,0E0,1.5511365E0,7.825537E-1,2.233155E0,1.571311E0,3.4830732E0,3.751374E0,0E0,0E0,7.272833E0,5.9152937E0,1.7055492E0,4.7330523E0,0E0,0E0,0E0,4.7601318E-1,0E0,0E0,0E0,0E0,0E0,0E0,0E0,0E0,0E0,0E0,0E0,0E0,0E0,0E0,0E0,0E0,0E0,0E0,0E0,0E0,0E0,0E0,0E0,0E0,0E0,0E0,0E0,0E0,0E0,0E0,0E0,0E0,0E0,0E0,0E0,0E0,0E0,0E0,0E0,0E0],"parents":[2147483647,0,0,1,1,2,2,3,3,4,4,5,5,6,6,7,7,8,8,9,9,10,10,11,11,12,12,13,13,14,14,15,15,16,16,17,17,19,19,20,20,21,21,22,22,23,23,24,24,25,25,26,26,27,27,28,28,29,29,30,30,31,31,32,32,33,33,34,34,39,39,40,40,41,41,42,42,43,43,45,45,46,46,47,47,48,48,49,49,50,50,53,53,54,54,55,55,56,56,60,60],"right_children":[2,4,6,8,10,12,14,16,18,20,22,24,26,28,30,32,34,36,-1,38,40,42,44,46,48,50,52,54,56,58,60,62,64,66,68,-1,-1,-1,-1,70,72,74,76,78,-1,80,82,84,86,88,90,-1,-1,92,94,96,98,-1,-1,-1,100,-1,-1,-1,-1,-1,-1,-1,-1,-1,-1,-1,-1,-1,-1,-1,-1,-1,-1,-1,-1,-1,-1,-1,-1,-1,-1,-1,-1,-1,-1,-1,-1,-1,-1,-1,-1,-1,-1,-1,-1],"split_conditions":[3.3341566E-1,-4.0738E-1,-5.727941E-1,9.586758E-1,-5.7747626E-1,-6.3918215E-1,-2.6832643E-1,-3.9081866E-1,5.1978E-1,-3.8899323E-1,8.0338275E-1,-6.0137355E-1,-5.897633E-2,-3.4928524E-1,-9.429959E-1,7.7230567E-1,-2.4502651E-1,-8.4790766E-1,2.7012553E-2,5.9733402E-2,-4.3381944E-1,-6.292015E-1,1.312509E0,-7.2878706E-1,-4.5442328E-1,4.835098E-1,4.4374594E-1,-4.4731826E-1,4.0323544E-1,1.9151773E-1,-1.117939E0,9.169174E-2,-8.4095156E-1,-4.6525607E-1,-5.513271E-1,-6.150716E-2,-3.4619135E-1,-3.9349833E-1,-6.646083E-2,-7.214751E-1,-7.0316935E-1,1.2630093E0,-5.899235E-1,5.6092364E-1,4.3177567E-2,-2.5325584E-1,-2.3494981E-1,-3.4001642E-1,1.3871898E-1,-8.711888E-1,-6.4753735E-1,-2.9011795E-1,7.8064115E-3,-3.2706103E-1,-1.2861751E-1,-4.5281655E-1,-2.2611807E-1,-2.2036943E-1,2.2481139E-1,8.5042626E-2,2.7261162E0,1.5816262E-1,2.4826521E-2,9.128275E-2,-2.5849557E-1,2.1671545E-2,2.9822353E-1,2.1115912E-2,-1.7663534E-1,4.0764368E-1,1.17169265E-2,3.4460017E-1,-2.6334438E-1,9.6313596E-2,-1.0764057E-1,4.0785372E-2,-8.2991764E-2,-2.913757E-1,-5.588068E-2,3.0732906E-1,-5.4707315E-2,-2.595188E-1,2.2502726E-2,1.5729713E-1,-2.1391015E-1,-2.763594E-1,2.387873E-2,-2.550544E-2,5.336602E-1,2.5982872E-1,-1.5369125E-1,-3.5161245E-1,1.4294083E-1,3.4473422E-1,-4.7052927E-2,-1.0457013E-1,-3.1153715E-1,-1.5767302E-1,4.0594104E-1,-2.9963645E-1,-5.6632083E-2],"split_indices":[13,37,5,9,36,5,17,29,24,12,33,29,1,0,29,21,1,21,0,13,4,13,36,5,16,13,13,24,37,36,33,5,25,37,13,0,0,0,0,36,29,36,17,5,0,24,1,21,4,17,9,0,0,33,9,9,21,0,0,0,37,0,0,0,0,0,0,0,0,0,0,0,0,0,0,0,0,0,0,0,0,0,0,0,0,0,0,0,0,0,0,0,0,0,0,0,0,0,0,0,0],"split_type":[0,0,0,0,0,0,0,0,0,0,0,0,0,0,0,0,0,0,0,0,0,0,0,0,0,0,0,0,0,0,0,0,0,0,0,0,0,0,0,0,0,0,0,0,0,0,0,0,0,0,0,0,0,0,0,0,0,0,0,0,0,0,0,0,0,0,0,0,0,0,0,0,0,0,0,0,0,0,0,0,0,0,0,0,0,0,0,0,0,0,0,0,0,0,0,0,0,0,0,0,0],"sum_hessian":[8.247206E2,7.136094E2,1.1111123E2,3.9075925E2,3.2285013E2,3.8681152E1,7.243008E1,3.7867697E2,1.20823E1,2.4881443E1,2.9796866E2,2.4877253E1,1.3803901E1,4.4498814E1,2.7931265E1,1.7437643E2,2.0430052E2,1.0480649E1,1.6016515E0,1.0585599E1,1.4295845E1,2.8626193E2,1.1706743E1,8.22359E0,1.6653662E1,1.0936389E1,2.867512E0,2.3248045E1,2.1250769E1,3.6958134E0,2.423545E1,1.6522554E2,9.15089E0,1.180801E2,8.622042E1,1.9620767E0,8.518572E0,9.491623E0,1.0939757E0,2.9391007E0,1.1356744E1,9.192877E1,1.9433316E2,1.068699E1,1.019753E0,4.9325566E0,3.291033E0,3.9414349E0,1.2712228E1,4.8389983E0,6.0973907E0,1.6476651E0,1.219847E0,1.0649552E1,1.2598492E1,1.7303312E1,3.9474561E0,1.8093668E0,1.8864465E0,1.0804416E0,2.315501E1,1.1487937E2,5.0346172E1,1.8534074E0,7.2974834E0,1.0924023E2,8.839879E0,4.7762695E1,3.8457726E1,1.7685734E0,1.1705275E0,1.0824531E0,1.0274291E1,7.246256E1,1.9466208E1,6.2558575E1,1.3177458E2,9.542412E0,1.1445781E0,3.9176872E0,1.0148692E0,2.2829301E0,1.0081029E0,2.3688753E0,1.5725596E0,1.1083281E1,1.6289467E0,1.1640525E0,3.6749458E0,3.407652E0,2.6897388E0,7.382125E0,3.267428E0,6.6285095E0,5.9699817E0,7.5970206E0,9.706292E0,2.8880882E0,1.059368E0,2.1862654E1,1.2923566E0],"tree_param":{"num_deleted":"0","num_feature":"40","num_nodes":"101","size_leaf_vector":"1"}},{"base_weights":[-3.4406647E-2,7.6436093E-3,-3.3527496E-1,3.757237E-2,-3.983995E-1,-2.2459505E-1,-7.774399E-1,1.6741094E-1,-5.667174E-2,1.5537323E-2,-6.426134E-1,-7.7176526E-2,-5.00916E-1,-1.7213346E-1,-8.6646605E-1,2.917854E-1,-1.0548765E-2,-1.9992638E-2,-5.477447E-1,3.2787514E-1,-6.4139205E-1,4.3022057E-1,-7.785939E-1,1.5794984E-1,-4.385003E-1,-6.3165855E-1,5.967966E-1,1.966147E-1,-2.1851566E-1,-9.195088E-1,-6.377052E-3,4.222124E-1,-3.537962E-2,9.271555E-1,-7.211598E-2,1.8273832E-1,-1.0554981E-1,-6.4139223E-1,2.5178868E-1,5.0574064E-1,-1.980518E-1,5.181544E-2,-8.400415E-1,3.574108E-1,-2.1922502E-1,-3.2825488E-1,-9.945118E-1,-1.4115137E-1,6.24653E-1,-6.8144214E-1,1.3305782E-1,-3.0197394E-1,-9.8057586E-1,4.1391394E-1,-8.320228E-2,-2.9182196E-1,-4.0722844E-1,1.4346391E-1,-1.5847117E-1,-6.5797895E-2,1.23458385E-1,4.261266E-1,-9.0534925E-2,-9.52102E-2,4.2077284E-2,1.3512218E-1,-1.5207914E-2,5.9897613E-2,-6.679477E-2,-1.8069675E-2,-2.430721E-1,2.0899642E-1,-1.9351114E-1,-2.9569677E-1,-3.4972105E-2,9.007526E-2,-1.7429963E-1,-3.86302E-2,-3.1443E-1,2.6354365E-2,-3.1916898E-1,-1.7808612E-1,2.842714E-1,-2.5139287E-1,1.174347E-1,2.4599445E-1,-1.0982952E-1,-1.5503718E-1,3.424585E-1,-3.139286E-1,-5.8949195E-2,-6.102173E-3,-1.7228211E-1],"categories":[],"categories_nodes":[],"categories_segments":[],"categories_sizes":[],"default_left":[0,0,0,0,0,0,0,0,0,0,0,0,0,0,0,0,0,0,0,0,0,0,0,0,0,0,0,0,0,0,0,0,0,0,0,0,0,0,0,0,0,0,0,0,0,0,0,0,0,0,0,0,0,0,0,0,0,0,0,0,0,0,0,0,0,0,0,0,0,0,0,0,0,0,0,0,0,0,0,0,0,0,0,0,0,0,0,0,0,0,0,0,0],"id":12,"left_children":[1,3,5,7,9,11,13,15,17,19,21,23,25,27,29,31,33,35,37,39,41,43,45,47,49,51,53,-1,-1,55,-1,57,59,61,63,65,67,69,-1,71,-1,-1,73,-1,-1,75,77,79,81,83,85,87,89,-1,-1,-1,91,-1,-1,-1,-1,-1,-1,-1,-1,-1,-1,-1,-1,-1,-1,-1,-1,-1,-1,-1,-1,-1,-1,-1,-1,-1,-1,-1,-1,-1,-1,-1,-1,-1,-1,-1,-1],"loss_changes":[1.02412815E1,8.655579E0,4.6830683E0,8.123843E0,4.952914E0,3.2524948E0,8.9982414E-1,6.1816564E0,6.9233046E0,4.133424E0,4.824809E0,4.645742E0,4.384881E0,2.200658E0,7.301369E-1,7.0278225E0,6.752298E0,6.250668E0,4.008834E0,2.7275405E0,1.1962128E0,4.499116E0,2.3641224E0,4.7460756E0,3.076096E0,2.63031E0,2.7686162E0,0E0,0E0,3.2295227E-2,0E0,6.5109367E0,4.0169992E0,4.7974677E0,5.752737E0,6.707554E0,9.096373E0,2.4628067E0,0E0,3.1096826E0,0E0,0E0,4.5347023E-1,0E0,0E0,1.8360311E0,7.0988846E-1,4.562873E0,5.762083E0,2.889288E0,2.785933E0,5.094102E0,4.0956688E-1,0E0,0E0,0E0,1.950602E-1,0E0,0E0,0E0,0E0,0E0,0E0,0E0,0E0,0E0,0E0,0E0,0E0,0E0,0E0,0E0,0E0,0E0,0E0,0E0,0E0,0E0,0E0,0E0,0E0,0E0,0E0,0E0,0E0,0E0,0E0,0E0,0E0,0E0,0E0,0E0,0E0],"parents":[2147483647,0,0,1,1,2,2,3,3,4,4,5,5,6,6,7,7,8,8,9,9,10,10,11,11,12,12,13,13,14,14,15,15,16,16,17,17,18,18,19,19,20,20,21,21,22,22,23,23,24,24,25,25,26,26,29,29,31,31,32,32,33,33,34,34,35,35,36,36,37,37,39,39,42,42,45,45,46,46,47,47,48,48,49,49,50,50,51,51,52,52,56,56],"right_children":[2,4,6,8,10,12,14,16,18,20,22,24,26,28,30,32,34,36,38,40,42,44,46,48,50,52,54,-1,-1,56,-1,58,60,62,64,66,68,70,-1,72,-1,-1,74,-1,-1,76,78,80,82,84,86,88,90,-1,-1,-1,92,-1,-1,-1,-1,-1,-1,-1,-1,-1,-1,-1,-1,-1,-1,-1,-1,-1,-1,-1,-1,-1,-1,-1,-1,-1,-1,-1,-1,-1,-1,-1,-1,-1,-1,-1,-1],"split_conditions":[3.941415E-1,5.932589E-1,-1.0510208E-1,-4.682688E-1,-6.502517E-1,-3.7522104E-1,-9.1765916E-1,-2.2611807E-1,4.8416403E-1,9.698406E-1,-6.6722286E-1,-3.5673697E-2,-1.0473586E-1,3.5726097E-1,1.1349225E0,2.8183416E-1,-9.3574214E-1,-5.727941E-1,4.653102E-1,1.3000111E-1,-7.655617E-1,-5.517286E-1,-6.5857565E-1,-4.257071E-1,4.765155E-1,-4.8783222E-1,7.187387E-1,1.966147E-1,-2.1851566E-1,2.3140013E0,-6.377052E-3,4.7596148E-1,5.125152E-1,9.4699895E-1,1.3016078E-1,-4.0051374E-1,-7.506575E-1,-7.1399677E-1,2.5178868E-1,1.9010477E-1,-1.980518E-1,5.181544E-2,2.2982566E0,3.574108E-1,-2.1922502E-1,-8.0683583E-1,-9.177425E-1,3.9246735E-1,-6.6681045E-1,9.328562E-1,-5.957297E-1,-5.15918E-1,-4.48289E-2,4.1391394E-1,-8.320228E-2,-2.9182196E-1,9.5546156E-1,1.4346391E-1,-1.5847117E-1,-6.5797895E-2,1.23458385E-1,4.261266E-1,-9.0534925E-2,-9.52102E-2,4.2077284E-2,1.3512218E-1,-1.5207914E-2,5.9897613E-2,-6.679477E-2,-1.8069675E-2,-2.430721E-1,2.0899642E-1,-1.9351114E-1,-2.9569677E-1,-3.4972105E-2,9.007526E-2,-1.7429963E-1,-3.86302E-2,-3.1443E-1,2.6354365E-2,-3.1916898E-1,-1.7808612E-1,2.842714E-1,-2.5139287E-1,1.174347E-1,2.4599445E-1,-1.0982952E-1,-1.5503718E-1,3.424585E-1,-3.139286E-1,-5.8949195E-2,-6.102173E-3,-1.7228211E-1],"split_indices":[25,5,16,13,17,5,17,21,21,19,32,21,20,32,37,33,9,5,4,9,9,37,9,20,36,9,25,0,0,31,0,5,36,11,21,17,25,9,0,33,0,0,27,0,0,13,21,29,17,27,28,9,0,0,0,0,23,0,0,0,0,0,0,0,0,0,0,0,0,0,0,0,0,0,0,0,0,0,0,0,0,0,0,0,0,0,0,0,0,0,0,0,0],"split_type":[0,0,0,0,0,0,0,0,0,0,0,0,0,0,0,0,0,0,0,0,0,0,0,0,0,0,0,0,0,0,0,0,0,0,0,0,0,0,0,0,0,0,0,0,0,0,0,0,0,0,0,0,0,0,0,0,0,0,0,0,0,0,0,0,0,0,0,0,0,0,0,0,0,0,0,0,0,0,0,0,0,0,0,0,0,0,0,0,0,0,0,0,0],"sum_hessian":[8.0828314E2,7.100228E2,9.826032E1,6.621261E2,4.7896744E1,7.979459E1,1.8465733E1,2.7814874E2,3.8397736E2,1.8120056E1,2.9776686E1,5.286837E1,2.6926224E1,2.7437754E0,1.5721956E1,1.6334721E2,1.1480153E2,3.5825906E2,2.5718288E1,1.2620516E1,5.499541E0,3.1061907E0,2.6670496E1,3.2368126E1,2.0500244E1,2.443989E1,2.4863331E0,1.031315E0,1.7124605E0,1.4710842E1,1.0111145E0,1.1658081E2,4.6766403E1,6.2069445E0,1.0859458E2,1.0598581E2,2.5227325E2,2.4595291E1,1.1229961E0,1.11088705E1,1.5116454E0,1.1043212E0,4.3952193E0,1.860341E0,1.2458497E0,9.460029E0,1.7210466E1,2.0151175E1,1.2216949E1,1.4250702E1,6.249542E0,1.3525444E1,1.0914446E1,1.0064981E0,1.4798352E0,1.251189E1,2.1989517E0,1.1056326E2,6.0175447E0,3.349084E1,1.327556E1,4.317993E0,1.8889512E0,5.016691E1,5.8427677E1,4.893918E1,5.704663E1,6.975594E1,1.825173E2,5.842536E0,1.8752756E1,9.86662E0,1.2422496E0,3.3571186E0,1.0381007E0,2.6592438E0,6.800785E0,1.2015598E0,1.6008907E1,1.6869452E1,3.281723E0,2.3841128E0,9.832837E0,1.2627338E1,1.6233636E0,2.3595989E0,3.8899434E0,1.23322E1,1.1932441E0,9.760121E0,1.1543251E0,1.001403E0,1.1975486E0],"tree_param":{"num_deleted":"0","num_feature":"40","num_nodes":"93","size_leaf_vector":"1"}},{"base_weights":[-3.0388508E-2,2.8075268E-2,-2.1412203E-1,5.9509996E-2,-4.1939658E-1,-1.6225182E-1,-8.154692E-1,7.273345E-2,-9.1358143E-1,-1.2716529E-2,-6.3371205E-1,1.3148493E-1,-2.5315252E-1,-3.1057218E-2,-9.068972E-1,-7.7030116E-1,8.756367E-2,-1.1517019E0,-1.0591265E-3,-8.3201754E-1,3.752334E-1,-1.9206442E-1,-9.389579E-1,7.208682E-1,-1.2548539E-1,6.845336E-1,-2.9885745E-1,-2.9407153E-1,-1.6128223E-2,-9.6665657E-1,4.9102563E-2,1.1700142E-1,-3.53213E-1,-4.2965811E-1,-9.679915E-2,-2.9552612E-1,-4.1605677E-2,7.3835295E-1,-4.4133994E-1,1.2332579E-1,-2.7765504E-1,1.51434485E-2,-3.1199428E-1,1.0436302E0,-5.3616613E-2,3.1441736E-1,-2.2242387E-1,3.5757023E-1,-1.3428915E-1,-8.4153086E-2,-4.859555E-1,-1.6661461E-2,-3.3531526E-1,4.018992E-2,-1.8120557E-1,-2.3228051E-2,-2.5159004E-1,4.674888E-2,3.7670654E-1,5.5503454E-2,-2.2937147E-1,1.2825514E-1,-2.1700111E-1,3.754796E-1,-2.9345853E-2,1.5843333E-1,-2.2717404E-1,9.2801616E-2,-1.396973E-1,-1.7768434E-1,9.552148E-2,-2.3922275E-1,1.30029265E-2,-7.616403E-2,-2.4151565E-1],"categories":[],"categories_nodes":[],"categories_segments":[],"categories_sizes":[],"default_left":[0,0,0,0,0,0,0,0,0,0,0,0,0,0,0,0,0,0,0,0,0,0,0,0,0,0,0,0,0,0,0,0,0,0,0,0,0,0,0,0,0,0,0,0,0,0,0,0,0,0,0,0,0,0,0,0,0,0,0,0,0,0,0,0,0,0,0,0,0,0,0,0,0,0,0],"id":13,"left_children":[1,3,5,7,9,11,13,15,17,19,21,23,25,-1,27,29,31,33,-1,35,37,39,41,43,45,47,49,-1,-1,51,-1,53,55,-1,-1,-1,-1,57,59,61,-1,-1,-1,63,65,-1,67,-1,69,71,73,-1,-1,-1,-1,-1,-1,-1,-1,-1,-1,-1,-1,-1,-1,-1,-1,-1,-1,-1,-1,-1,-1,-1,-1],"loss_changes":[8.521604E0,8.496686E0,5.840288E0,7.3189096E0,3.44835E0,4.7732825E0,8.7965107E-1,7.0311623E0,1.6494045E0,4.986693E0,3.3180304E0,6.5441647E0,6.0292788E0,0E0,7.685604E-1,1.9427938E0,7.155252E0,9.4349766E-1,0E0,3.9792895E-1,3.4896326E0,2.8582537E0,1.5605803E0,3.3271294E0,3.7057528E0,2.9105458E0,5.1929502E0,0E0,0E0,1.0645103E0,0E0,6.3766155E0,4.5633764E0,0E0,0E0,0E0,0E0,2.1427965E0,9.330938E-1,2.6729932E0,0E0,0E0,0E0,2.3266888E0,2.3648472E0,0E0,3.8977525E0,0E0,9.000631E-1,5.661634E0,4.935837E0,0E0,0E0,0E0,0E0,0E0,0E0,0E0,0E0,0E0,0E0,0E0,0E0,0E0,0E0,0E0,0E0,0E0,0E0,0E0,0E0,0E0,0E0,0E0,0E0],"parents":[2147483647,0,0,1,1,2,2,3,3,4,4,5,5,6,6,7,7,8,8,9,9,10,10,11,11,12,12,14,14,15,15,16,16,17,17,19,19,20,20,21,21,22,22,23,23,24,24,25,25,26,26,29,29,31,31,32,32,37,37,38,38,39,39,43,43,44,44,46,46,48,48,49,49,50,50],"right_children":[2,4,6,8,10,12,14,16,18,20,22,24,26,-1,28,30,32,34,-1,36,38,40,42,44,46,48,50,-1,-1,52,-1,54,56,-1,-1,-1,-1,58,60,62,-1,-1,-1,64,66,-1,68,-1,70,72,74,-1,-1,-1,-1,-1,-1,-1,-1,-1,-1,-1,-1,-1,-1,-1,-1,-1,-1,-1,-1,-1,-1,-1,-1],"split_conditions":[8.59583E-2,5.534761E-1,3.5228544E-1,1.7219318E0,-7.7623993E-1,-6.9390595E-1,-8.8289577E-1,-7.484631E-1,-2.0292549E-1,-1.0036165E0,-6.6133666E-1,-7.042386E-1,-9.813675E-1,-3.1057218E-2,2.1553059E0,-2.9251393E-2,6.2814623E-1,-2.4067676E-1,-1.0591265E-3,-2.793407E-1,-3.8203204E-1,-1.7066547E-1,5.8305067E-1,6.507577E-1,-5.959097E-1,-3.2612815E-1,-4.4319114E-1,-2.9407153E-1,-1.6128223E-2,-4.411552E-1,4.9102563E-2,1.1201086E0,-2.659054E-1,-4.2965811E-1,-9.679915E-2,-2.9552612E-1,-4.1605677E-2,-5.6476414E-1,-7.7135026E-1,-1.3647269E-1,-2.7765504E-1,1.51434485E-2,-3.1199428E-1,-3.3534147E-2,-8.9523214E-1,3.1441736E-1,-6.814616E-1,3.5757023E-1,-4.889401E-1,-5.88418E-1,-3.678037E-1,-1.6661461E-2,-3.3531526E-1,4.018992E-2,-1.8120557E-1,-2.3228051E-2,-2.5159004E-1,4.674888E-2,3.7670654E-1,5.5503454E-2,-2.2937147E-1,1.2825514E-1,-2.1700111E-1,3.754796E-1,-2.9345853E-2,1.5843333E-1,-2.2717404E-1,9.2801616E-2,-1.396973E-1,-1.7768434E-1,9.552148E-2,-2.3922275E-1,1.30029265E-2,-7.616403E-2,-2.4151565E-1],"split_indices":[29,9,17,1,33,21,25,28,13,33,21,9,33,0,3,21,13,17,0,12,1,29,9,1,12,12,1,0,0,5,0,21,21,0,0,0,0,1,25,1,0,0,0,13,25,0,13,0,17,0,5,0,0,0,0,0,0,0,0,0,0,0,0,0,0,0,0,0,0,0,0,0,0,0,0],"split_type":[0,0,0,0,0,0,0,0,0,0,0,0,0,0,0,0,0,0,0,0,0,0,0,0,0,0,0,0,0,0,0,0,0,0,0,0,0,0,0,0,0,0,0,0,0,0,0,0,0,0,0,0,0,0,0,0,0,0,0,0,0,0,0,0,0,0,0,0,0,0,0,0,0,0,0],"sum_hessian":[7.91756E2,6.0127747E2,1.9047853E2,5.626206E2,3.865687E1,1.7652214E2,1.39564E1,5.559904E2,6.6301646E0,1.3706699E1,2.4950172E1,4.161166E1,1.3491048E2,1.8309773E0,1.2125423E1,8.730969E0,5.4725946E2,5.044662E0,1.5855025E0,4.0368123E0,9.669888E0,1.0862657E1,1.4087517E1,1.20860405E1,2.9525618E1,5.6205993E0,1.2928989E2,1.102837E1,1.0970527E0,7.185358E0,1.5456111E0,5.136869E2,3.3572575E1,3.225746E0,1.818916E0,2.9620652E0,1.0747472E0,6.7597194E0,2.9101682E0,8.177936E0,2.68472E0,1.3514558E0,1.2736061E1,8.285564E0,3.8004763E0,1.5041924E0,2.8021425E1,3.1889827E0,2.4316165E0,6.0878513E1,6.841137E1,1.2163914E0,5.968967E0,5.0267358E2,1.1013279E1,2.2148602E1,1.1423974E1,3.7915845E0,2.9681346E0,1.1361601E0,1.7740079E0,6.380565E0,1.7973709E0,6.92699E0,1.3585743E0,2.217008E0,1.5834683E0,8.70927E0,1.9312157E1,1.0554585E0,1.3761579E0,8.4351425E0,5.244337E1,4.064577E1,2.7765594E1],"tree_param":{"num_deleted":"0","num_feature":"40","num_nodes":"75","size_leaf_vector":"1"}},{"base_weights":[-2.7681379E-2,2.0603625E-2,-2.3117302E-1,2.0016716E-1,-5.3531572E-2,1.76072E-1,-3.1808338E-1,-4.752405E-2,3.4907022E-1,2.8914725E-2,-2.3974188E-1,6.675584E-1,-2.3227447E-1,-2.2627823E-1,-7.695219E-1,1.05535865E-1,-4.1753E-1,5.379838E-1,-3.2298353E-2,6.1077747E-2,-4.296657E-1,7.985091E-2,-4.0405983E-1,-2.0591474E-1,8.749241E-1,-6.940341E-1,4.4593984E-1,3.1738505E-1,-3.119645E-1,6.6527136E-2,-3.323276E-1,1.5652475E-3,7.6298964E-1,1.3900782E-1,-7.2149783E-1,7.568626E-1,-4.038615E-3,9.372725E-1,-1.2810446E-1,8.4926374E-2,-6.323028E-1,3.5508573E-1,-6.5824765E-1,2.7144575E-1,-5.2976286E-1,3.2764202E-1,-5.284012E-1,-1.5027662E-1,1.088352E0,-3.1821287E-1,-2.134511E-1,8.3001834E-1,-2.1528848E-1,6.4468175E-1,-5.1932055E-1,4.741789E-1,-3.7494826E-1,3.888964E-1,-2.1174937E-1,9.372499E-2,-1.202237E-1,3.4032458E-1,1.3437857E-2,-1.2251895E-1,2.9650196E-1,4.1105248E-2,-2.822407E-1,-3.5431586E-2,2.718543E-1,1.0165316E-1,-1.9423099E-1,4.1933239E-1,1.0486212E-2,-9.686245E-2,1.2157389E-1,1.3148265E-1,1.0757678E-2,6.293342E-3,-3.1410873E-1,-1.2838694E-1,3.68219E-1,1.1646607E-1,-2.4454533E-1,1.5348385E-1,-1.2799908E-1,8.1504166E-2,-2.4635188E-1,2.201909E-1,-1.1181096E-1,1.1619113E-2,-1.8630883E-1,3.9071468E-1,1.595361E-2,1.1526541E-1,-1.5986145E-1,-2.9691627E-2,3.6447477E-1,7.9670586E-2,3.7073183E-1,7.2120965E-2,-2.7536473E-1,2.9946998E-1,-1.9100325E-1,-2.513741E-1,-6.3688785E-2,2.807816E-1,-5.18098E-3],"categories":[],"categories_nodes":[],"categories_segments":[],"categories_sizes":[],"default_left":[0,0,0,0,0,0,0,0,0,0,0,0,0,0,0,0,0,0,0,0,0,0,0,0,0,0,0,0,0,0,0,0,0,0,0,0,0,0,0,0,0,0,0,0,0,0,0,0,0,0,0,0,0,0,0,0,0,0,0,0,0,0,0,0,0,0,0,0,0,0,0,0,0,0,0,0,0,0,0,0,0,0,0,0,0,0,0,0,0,0,0,0,0,0,0,0,0,0,0,0,0,0,0,0,0,0,0],"id":14,"left_children":[1,3,5,7,9,11,13,15,17,19,21,23,25,27,29,31,33,35,37,39,41,43,45,-1,47,49,51,53,55,57,-1,59,61,63,65,67,69,71,73,75,77,79,81,83,85,87,89,-1,91,-1,93,95,-1,97,99,101,103,105,-1,-1,-1,-1,-1,-1,-1,-1,-1,-1,-1,-1,-1,-1,-1,-1,-1,-1,-1,-1,-1,-1,-1,-1,-1,-1,-1,-1,-1,-1,-1,-1,-1,-1,-1,-1,-1,-1,-1,-1,-1,-1,-1,-1,-1,-1,-1,-1,-1],"loss_changes":[7.6908236E0,8.43919E0,5.3685904E0,6.8481784E0,6.8989286E0,5.582425E0,4.967325E0,4.032448E0,8.360513E0,4.628729E0,7.2727036E0,4.11851E0,5.167574E0,4.967478E0,5.88441E0,3.4586658E0,3.62064E0,9.197275E0,3.7711222E0,4.8900547E0,3.9246266E0,5.709488E0,8.472607E0,0E0,3.8649912E0,1.4688354E0,3.6758366E0,4.36713E0,4.672883E0,1.9830307E0,0E0,5.7160883E0,1.7923021E0,4.211068E0,2.6932802E0,7.320259E0,5.3568835E0,1.4697838E0,3.9380774E0,4.901807E0,2.6888585E0,4.139299E0,2.9903417E0,6.408062E0,2.963533E0,4.219799E0,4.1402206E0,0E0,2.1690369E0,0E0,1.2385672E0,2.1389008E0,0E0,2.143629E0,1.64203E0,4.8127213E0,6.193323E0,1.235117E0,0E0,0E0,0E0,0E0,0E0,0E0,0E0,0E0,0E0,0E0,0E0,0E0,0E0,0E0,0E0,0E0,0E0,0E0,0E0,0E0,0E0,0E0,0E0,0E0,0E0,0E0,0E0,0E0,0E0,0E0,0E0,0E0,0E0,0E0,0E0,0E0,0E0,0E0,0E0,0E0,0E0,0E0,0E0,0E0,0E0,0E0,0E0,0E0,0E0],"parents":[2147483647,0,0,1,1,2,2,3,3,4,4,5,5,6,6,7,7,8,8,9,9,10,10,11,11,12,12,13,13,14,14,15,15,16,16,17,17,18,18,19,19,20,20,21,21,22,22,24,24,25,25,26,26,27,27,28,28,29,29,31,31,32,32,33,33,34,34,35,35,36,36,37,37,38,38,39,39,40,40,41,41,42,42,43,43,44,44,45,45,46,46,48,48,50,50,51,51,53,53,54,54,55,55,56,56,57,57],"right_children":[2,4,6,8,10,12,14,16,18,20,22,24,26,28,30,32,34,36,38,40,42,44,46,-1,48,50,52,54,56,58,-1,60,62,64,66,68,70,72,74,76,78,80,82,84,86,88,90,-1,92,-1,94,96,-1,98,100,102,104,106,-1,-1,-1,-1,-1,-1,-1,-1,-1,-1,-1,-1,-1,-1,-1,-1,-1,-1,-1,-1,-1,-1,-1,-1,-1,-1,-1,-1,-1,-1,-1,-1,-1,-1,-1,-1,-1,-1,-1,-1,-1,-1,-1,-1,-1,-1,-1,-1,-1],"split_conditions":[2.6174864E-1,-5.970433E-1,-9.2501765E-1,-4.5192832E-1,-1.0785062E-1,-4.526479E-1,2.7647898E-1,-1.1832958E-1,5.95849E-2,4.8678765E-1,-6.502517E-1,-1.1316507E0,-6.797576E-2,-9.3997955E-1,-7.600305E-1,9.328562E-1,-6.6722286E-1,1.462297E-1,-5.106511E-1,1.2712631E0,-9.153184E-1,4.485157E-1,-7.8890896E-1,-2.0591474E-1,-6.369358E-1,-3.7540755E-1,2.1553059E0,1.7288306E-1,-1.0678314E0,8.8631535E-1,-3.323276E-1,-5.601765E-2,7.351189E-2,-1.7832097E-1,-7.002921E-1,-9.2276525E-1,-2.0325964E-2,-2.976563E-1,-8.705636E-2,-8.745068E-1,-5.965351E-1,-9.5301235E-1,-7.8061515E-1,1.4932203E-1,-5.4093224E-1,-2.904308E-1,-7.9471284E-1,-1.5027662E-1,9.088508E-1,-3.1821287E-1,-4.1499054E-1,-6.4334565E-1,-2.1528848E-1,-2.0216423E-1,-5.125523E-1,-5.597448E-1,-4.238023E-1,-4.6960726E-1,-2.1174937E-1,9.372499E-2,-1.202237E-1,3.4032458E-1,1.3437857E-2,-1.2251895E-1,2.9650196E-1,4.1105248E-2,-2.822407E-1,-3.5431586E-2,2.718543E-1,1.0165316E-1,-1.9423099E-1,4.1933239E-1,1.0486212E-2,-9.686245E-2,1.2157389E-1,1.3148265E-1,1.0757678E-2,6.293342E-3,-3.1410873E-1,-1.2838694E-1,3.68219E-1,1.1646607E-1,-2.4454533E-1,1.5348385E-1,-1.2799908E-1,8.1504166E-2,-2.4635188E-1,2.201909E-1,-1.1181096E-1,1.1619113E-2,-1.8630883E-1,3.9071468E-1,1.595361E-2,1.1526541E-1,-1.5986145E-1,-2.9691627E-2,3.6447477E-1,7.9670586E-2,3.7073183E-1,7.2120965E-2,-2.7536473E-1,2.9946998E-1,-1.9100325E-1,-2.513741E-1,-6.3688785E-2,2.807816E-1,-5.18098E-3],"split_indices":[1,25,29,4,9,32,5,5,33,17,17,33,8,25,13,27,32,13,0,25,1,36,21,0,4,13,3,33,33,7,0,13,33,9,13,25,9,17,4,13,0,1,29,29,5,17,5,0,35,0,0,9,0,33,37,37,8,32,0,0,0,0,0,0,0,0,0,0,0,0,0,0,0,0,0,0,0,0,0,0,0,0,0,0,0,0,0,0,0,0,0,0,0,0,0,0,0,0,0,0,0,0,0,0,0,0,0],"split_type":[0,0,0,0,0,0,0,0,0,0,0,0,0,0,0,0,0,0,0,0,0,0,0,0,0,0,0,0,0,0,0,0,0,0,0,0,0,0,0,0,0,0,0,0,0,0,0,0,0,0,0,0,0,0,0,0,0,0,0,0,0,0,0,0,0,0,0,0,0,0,0,0,0,0,0,0,0,0,0,0,0,0,0,0,0,0,0,0,0,0,0,0,0,0,0,0,0,0,0,0,0,0,0,0,0,0,0],"sum_hessian":[7.812489E2,6.321496E2,1.4909929E2,1.8422836E2,4.4792123E2,2.6042637E1,1.2305665E2,6.942497E1,1.148034E2,3.1104706E2,1.3687418E2,1.1530149E1,1.4512487E1,1.035083E2,1.9548347E1,4.9615402E1,1.9809568E1,7.649861E1,3.8304783E1,2.9147122E2,1.957583E1,4.6651886E1,9.022229E1,1.2245779E0,1.0305572E1,8.620159E0,5.892328E0,1.3724553E1,8.9783745E1,5.862014E0,1.3686335E1,4.3706047E1,5.909352E0,7.189298E0,1.2620271E1,5.421088E1,2.2287733E1,2.654803E0,3.5649982E1,2.8262784E2,8.843387E0,4.290964E0,1.5284866E1,3.5917988E1,1.0733899E1,1.2867417E1,7.735487E1,1.2030662E0,9.102506E0,4.2048273E0,4.4153323E0,4.645553E0,1.2467749E0,1.0030422E1,3.6941311E0,6.1754274E0,8.360832E1,4.4860816E0,1.3759323E0,2.4781616E1,1.8924433E1,3.5130146E0,2.3963375E0,4.687382E0,2.5019164E0,2.6441977E0,9.976073E0,7.9332266E0,4.6277653E1,1.4848146E1,7.439586E0,1.3941834E0,1.2606196E0,2.6402779E1,9.247203E0,3.3494194E1,2.4913365E2,3.8027213E0,5.040665E0,2.5296168E0,1.7613472E0,1.8007169E0,1.3484149E1,2.6922962E1,8.995028E0,2.8802536E0,7.8536453E0,8.112614E0,4.7548037E0,1.0942075E1,6.6412796E1,7.3290386E0,1.7734668E0,1.4671953E0,2.9481368E0,1.5785112E0,3.0670419E0,6.993942E0,3.03648E0,1.4076824E0,2.2864487E0,4.264842E0,1.9105855E0,2.0657705E1,6.2950615E1,1.3557609E0,3.1303205E0],"tree_param":{"num_deleted":"0","num_feature":"40","num_nodes":"107","size_leaf_vector":"1"}},{"base_weights":[-2.4314573E-2,-1.1717591E-2,-7.67283E-1,1.0672057E-2,-3.7247962E-1,-1.3042071E-1,-3.0432138E-1,7.6386996E-2,-1.1248087E-1,-4.667909E-2,-5.917535E-1,2.5435534E-1,-1.9179387E-1,9.564656E-2,-5.1841265E-1,-3.2459598E-2,-4.7091162E-1,1.5351844E-1,-6.998698E-1,-7.247845E-2,-8.607762E-1,-8.506719E-2,2.312421E-1,1.7003648E-2,2.3299563E-1,-7.022187E-1,3.408636E-1,-6.960025E-2,7.470748E-1,-2.6152548E-1,-8.00138E-1,4.8859328E-1,-3.110629E-1,-5.6568623E-2,-2.4624576E-1,2.2418207E-1,-2.3473273E-1,-3.0853727E-1,-1.6159734E-1,1.2986514E-2,-1.8887486E-1,3.8326564E-1,5.1564123E-2,1.12290084E-1,-2.6428324E-1,1.8798389E-1,-4.272553E-2,2.4293564E-2,-7.587352E-2,-1.1879073E-1,3.3231264E-1,-1.490906E-1,4.3925054E-2,1.4560078E-1,-2.770413E-1,3.1731033E-1,-1.910512E-3,7.323961E-2,-2.0443098E-1,1.3798407E-1,-1.9309859E-1,1.664753E-1,-1.6216116E-1],"categories":[],"categories_nodes":[],"categories_segments":[],"categories_sizes":[],"default_left":[0,0,0,0,0,0,0,0,0,0,0,0,0,0,0,0,0,0,0,0,0,0,0,0,0,0,0,0,0,0,0,0,0,0,0,0,0,0,0,0,0,0,0,0,0,0,0,0,0,0,0,0,0,0,0,0,0,0,0,0,0,0,0],"id":15,"left_children":[1,3,5,7,9,11,-1,13,15,17,19,21,-1,23,25,27,29,31,33,35,37,-1,-1,39,41,43,45,47,49,51,53,55,57,-1,-1,59,-1,-1,61,-1,-1,-1,-1,-1,-1,-1,-1,-1,-1,-1,-1,-1,-1,-1,-1,-1,-1,-1,-1,-1,-1,-1,-1],"loss_changes":[7.163561E0,6.099178E0,1.8761454E0,5.7666063E0,3.124546E0,1.0858717E0,0E0,5.370971E0,7.0966787E0,2.570545E0,3.6099339E0,1.1632047E0,0E0,4.8653502E0,2.5650678E0,5.95186E0,2.905282E0,2.5239472E0,1.2961316E-1,2.2949018E0,1.8532028E0,0E0,0E0,4.917511E0,1.0253559E1,2.7265224E0,5.405457E-1,5.41477E0,4.2939563E0,2.867941E0,3.1558275E0,2.6099243E0,1.6048919E0,0E0,0E0,1.907286E0,0E0,0E0,1.5267346E0,0E0,0E0,0E0,0E0,0E0,0E0,0E0,0E0,0E0,0E0,0E0,0E0,0E0,0E0,0E0,0E0,0E0,0E0,0E0,0E0,0E0,0E0,0E0,0E0],"parents":[2147483647,0,0,1,1,2,2,3,3,4,4,5,5,7,7,8,8,9,9,10,10,11,11,13,13,14,14,15,15,16,16,17,17,18,18,19,19,20,20,23,23,24,24,25,25,26,26,27,27,28,28,29,29,30,30,31,31,32,32,35,35,38,38],"right_children":[2,4,6,8,10,12,-1,14,16,18,20,22,-1,24,26,28,30,32,34,36,38,-1,-1,40,42,44,46,48,50,52,54,56,58,-1,-1,60,-1,-1,62,-1,-1,-1,-1,-1,-1,-1,-1,-1,-1,-1,-1,-1,-1,-1,-1,-1,-1,-1,-1,-1,-1,-1,-1],"split_conditions":[1.0898024E0,5.932589E-1,-6.7315394E-1,-1.07428454E-1,-6.502517E-1,9.918441E-2,-3.0432138E-1,9.586758E-1,-4.3726813E-2,-1.012075E-1,-4.561273E-1,-2.81571E-1,-1.9179387E-1,-2.851384E-1,1.0820107E0,-8.565184E-2,-2.0216423E-1,-5.7396924E-1,-1.5197451E-2,-5.339407E-1,3.5314605E-1,-8.506719E-2,2.312421E-1,3.1412754E0,-4.7299597E-1,-6.4243984E-1,-4.135839E-1,-3.879763E-1,-6.6681045E-1,-2.1923141E-1,-9.8541456E-1,9.4894975E-1,-1.6463128E-1,-5.6568623E-2,-2.4624576E-1,-3.7233475E-1,-2.3473273E-1,-3.0853727E-1,5.0508E-1,1.2986514E-2,-1.8887486E-1,3.8326564E-1,5.1564123E-2,1.12290084E-1,-2.6428324E-1,1.8798389E-1,-4.272553E-2,2.4293564E-2,-7.587352E-2,-1.1879073E-1,3.3231264E-1,-1.490906E-1,4.3925054E-2,1.4560078E-1,-2.770413E-1,3.1731033E-1,-1.910512E-3,7.323961E-2,-2.0443098E-1,1.3798407E-1,-1.9309859E-1,1.664753E-1,-1.6216116E-1],"split_indices":[29,5,5,25,17,12,0,9,1,33,0,12,0,28,36,1,33,21,8,29,0,0,0,37,32,20,8,32,17,4,13,5,1,0,0,12,0,0,0,0,0,0,0,0,0,0,0,0,0,0,0,0,0,0,0,0,0,0,0,0,0,0,0],"split_type":[0,0,0,0,0,0,0,0,0,0,0,0,0,0,0,0,0,0,0,0,0,0,0,0,0,0,0,0,0,0,0,0,0,0,0,0,0,0,0,0,0,0,0,0,0,0,0,0,0,0,0,0,0,0,0,0,0,0,0,0,0,0,0],"sum_hessian":[7.653671E2,7.536055E2,1.176156E1,7.1048193E2,4.3123585E1,3.7150874E0,8.0464735E0,4.6352353E2,2.4695844E2,1.7835783E1,2.5287804E1,2.400349E0,1.3147384E0,4.4979828E2,1.3725237E1,2.0277792E2,4.418052E1,1.4237177E1,3.598605E0,9.063193E0,1.622461E1,1.3966316E0,1.0037173E0,2.8674088E2,1.6305742E2,1.1457224E1,2.2680135E0,1.9442531E2,8.352612E0,2.81021E1,1.6078417E1,8.241436E0,5.9957414E0,1.1779388E0,2.4206662E0,6.8747807E0,2.188413E0,1.27063465E1,3.5182626E0,2.7643637E2,1.0304511E1,7.9127045E0,1.5514471E2,1.4755067E0,9.981717E0,1.2389084E0,1.0291052E0,1.070493E2,8.7376E1,1.9797462E0,6.3728657E0,1.767993E1,1.0422173E1,1.1506156E0,1.4927801E1,3.304723E0,4.9367127E0,2.5356376E0,3.460104E0,5.775719E0,1.0990617E0,1.0563942E0,2.4618683E0],"tree_param":{"num_deleted":"0","num_feature":"40","num_nodes":"63","size_leaf_vector":"1"}},{"base_weights":[-2.12362E-2,-1.04404045E-2,-7.641003E-1,4.5775767E-2,-1.3614646E-1,-7.606439E-2,-2.744055E-1,6.933991E-2,-3.165057E-1,1.4043197E-2,-2.784067E-1,1.9699613E-2,-5.4267805E-2,1.3923745E-1,-9.251801E-2,5.6557524E-1,-4.939984E-1,8.64778E-2,-6.718216E-1,-6.6119105E-2,-6.4410406E-1,2.2470333E-1,-5.3584367E-2,2.5547582E-1,-2.1579935E-1,-2.689631E-1,1.1932648E0,2.5749272E-1,-6.644992E-1,3.7788668E-1,-7.475753E-2,1.3948846E-1,-8.3538634E-1,8.550003E-1,-1.364052E-1,